510 256
14 -0.0015575178 -0.001803276 0.0027123343 0.006275175 -0.0008089987 -0.0033199773 0.0052733202 0.0017114909 -0.0033680312 -4.3552314e-05 0.0034629966 -0.0006378894 -0.0022672764 -0.00089765905 -0.0016060921 0.0014925984 0.0026681374 0.0017214685 -0.00590471 0.00059138157 0.004238751 0.0024328295 0.0013778678 -0.002292753 -0.00049046025 -8.263571e-05 8.4379164e-05 0.0030165238 -0.004367282 -0.0025967527 -0.0023971356 1.4921116e-06 0.00273558 -0.0032651792 -0.0017526645 0.0016587834 0.0061889 -0.0057942015 0.0013292535 -0.003841961 -0.006565791 0.0047084116 -0.0054872204 -0.003541806 0.0041139857 -0.0005741265 -0.002421185 0.0025759758 0.0029901324 0.004590132 -0.0026468143 0.0028170138 -0.0032070375 0.001560046 0.0013288163 -0.0028932977 0.0037881958 -0.0057444465 -0.0007686179 0.0054987352 -0.0006372836 0.001581086 -0.0028769022 -0.0019978704 0.0015907544 0.00032986922 0.001140299 0.0045167366 -0.0018660442 -4.0810275e-05 0.0038315596 0.0032694463 -0.0023760896 -0.0063176323 0.0021057543 0.00022612148 0.0024198524 -0.0014843813 -0.00026017902 -0.0006018842 -0.0016701558 -0.0003662293 0.0044977195 0.0060791625 -0.0031766733 0.0032242548 0.0040754094 -0.0053051244 -0.00249913 0.002234514 0.0013675636 -0.00040012784 0.0023924906 -0.0024666558 0.006595095 0.0055053425 -0.006502251 -0.005062653 0.00019591642 0.001451251 -0.0066188104 0.0018848085 0.0028791882 0.0042515453 0.0036564863 -0.0013267177 0.0013973177 0.0027756952 0.0007790054 -0.0048504705 0.0014787964 -0.0050897365 -0.0017485822 0.0047569536 0.00018889134 0.002889379 0.0042515183 0.0034888068 -0.00228662 8.4271596e-05 0.0011434417 -0.0037266535 0.0042597437 -0.0050553633 0.002153605 0.0008274221 -0.0003730732 0.0011968031 0.0006724463 0.002356429 0.004443273 -0.002168891 -0.0003674856 -0.0043604746 0.0011241513 -0.00020939385 0.0036081378 0.0041477135 0.0066924836 0.0039372006 0.0023897842 -0.0039482373 -0.0015979053 0.0019063473 -0.0066118054 0.002762968 0.00088764954 -0.0014389022 0.002507476 0.002658167 0.0020015044 -0.0057547954 -0.0015190692 0.0029270786 -0.00460234 0.0046938085 0.0055016004 0.002081337 -0.0030885441 0.0029713244 -0.0019346471 0.002290125 -0.000972693 -0.0025168096 0.0018582691 0.0020610238 0.002734162 0.000863203 0.0046686446 0.0033505207 -0.0021918355 -0.0043070866 0.0026200681 0.0031735224 -0.0038338252 -0.002715018 -0.0054024463 -0.000625765 0.0050123273 -0.0015367769 -0.0042573744 0.0024919803 0.002920549 -0.0022126106 0.002912892 -0.00014758321 -0.003534839 -0.005062406 -0.0014258646 -0.002480275 0.0030388606 -0.0008590316 0.003871788 -0.004417886 -0.000325286 -0.0010190832 0.0028987403 -0.003635717 -0.005480044 0.00048769024 -0.0025576204 0.0005115098 -0.0018056617 -0.002684659 0.0022944312 0.0029351474 -0.005053015 -0.0021122305 -0.0055111246 0.0029049404 -0.0016934631 0.00026755966 0.0069576153 0.003100304 0.004117172 -0.0024754184 0.0047847596 0.0062795524 -0.0059788455 -0.0013130668 -0.0024088863 -0.0011551284 -0.0006810997 -0.004252939 0.0046874993 -0.0037273967 0.0029562558 0.0025322526 -0.0038467764 0.002338518 0.00016554425 -0.0021925655 -0.0021584893 -0.0020277791 -0.0047637047 0.0026041912 0.0012143205 0.00069846533 0.001489288 -0.000689415 -0.0043168673 0.0014131851 -0.001291604 0.003934332 0.0006301149 0.0023778311 0.0022181128 -0.0008454134 -0.0034643528 -0.0024044912 -0.002729017 0.0014176791 -0.0054604122 -0.0052308748 -0.007844184 -0.0024762466
300 -0.0013412337 -0.0025830858 -0.002151349 -0.00021073775 0.0031154018 -0.0016687571 0.004499873 -0.0001263442 -0.003578999 0.00448064 0.0032396524 0.00206352 -0.0030290338 0.00074900454 0.0017312027 0.0031290313 0.0022458734 0.0012353052 -0.0025458809 0.005393246 0.0045748167 0.0017234082 -0.0017208114 -0.0011599632 -0.0007637675 -0.0025858819 -0.00309891 0.000278795 -0.00014580545 -0.0027785362 -0.001557528 -0.0028355904 0.0029851396 -0.00016779342 -0.0023433696 0.0034081792 0.0049611917 -0.0030992234 0.003820897 0.001324147 0.0009931237 0.0015731362 0.0022499238 -0.0037537455 -0.0012564847 0.0035639592 0.00020367584 -0.0012267833 0.002335357 -0.0011585772 0.0012633823 0.0031752863 0.0017459493 -0.00234367 0.0026214994 0.0012970399 0.0025794075 -0.0038806708 0.0036822753 -1.3646089e-05 0.0035666237 -0.0014786823 -0.0037720932 0.0032988233 0.0015976004 -0.0010910748 0.004459312 0.00492843 -0.004330965 0.00063806825 0.0032024484 0.0015330656 -6.628102e-05 -0.0009957211 0.0003860834 -0.0017226466 -0.0030245406 -0.0014195094 0.00179728 0.0046935175 0.002809768 -0.0032474226 -0.0026111335 0.0054156138 0.0009281292 0.0031555577 0.0034028005 -0.0027532792 0.0022933113 0.00096786243 0.0014523793 -0.0012473972 -0.00079661835 -0.0021391285 0.003096477 0.0016014833 -0.0051342854 -0.004888615 -0.0025079928 -0.0004153818 -0.0007448031 0.004107785 0.0026003874 -0.00087213813 0.0005200882 0.0024955117 0.003332885 -8.9010566e-05 0.0026169808 -0.0034885975 0.00047630357 0.0022172162 -0.00079619815 -0.0031513239 0.001755844 -0.0014972611 0.0002260592 0.0043474725 -0.0012499487 -0.0018516554 -0.0019549537 0.001861754 -0.0018519743 0.00032467622 -0.002456013 0.0023681226 0.0023786759 0.0010073471 4.9294278e-05 -0.0012970867 0.0039491644 0.0020311116 -0.0009294454 -0.0045142835 -0.0030971074 -0.0009573515 0.00025434763 -0.00020747121 0.0052620675 5.6734707e-06 0.0020121578 -0.0034393487 -1.2522854e-05 -0.0011176638 -0.0053154207 0.00027239844 -0.0035053354 -0.001290762 0.0023292664 0.003256632 0.0001225126 -0.00025947602 -0.0023999684 0.0035139038 -0.0044604447 0.0024552585 -0.002394252 0.0006871336 -0.0032935815 -0.0018369119 -0.00046123774 0.0027438556 0.0028039087 -0.0022607166 0.00061569875 -0.0035167655 0.0030151238 0.005310432 -0.0001945395 0.0006201065 0.00011779692 0.0017273923 -0.0031862627 0.00060445536 0.0011782891 0.00082756474 -0.0006807276 -0.003629145 0.00475423 -0.0025069143 -0.0015787218 0.0019175657 0.00028793144 0.0006192975 0.0017681587 -0.002316859 -0.005530638 0.0029274747 0.0013323162 -0.0029798597 0.002551475 2.5517385e-05 0.003332157 -0.0035397091 0.0019125039 0.0007408594 0.0042544063 -0.0030787108 -0.0014485904 -0.0035759471 -0.0051843636 -0.004100778 0.00013841118 -0.0034321223 0.0015721704 -0.0022290559 -0.00062351377 -0.0011513316 -0.0024793625 -0.00021282033 0.004060453 0.004237746 -0.00012969352 0.0049316515 -0.0016688842 0.0024110721 -3.390677e-05 0.0025502227 2.656549e-05 0.0031368663 -0.00087584613 0.0038497313 0.0033082352 -0.004143845 -0.0022744846 -0.00400403 0.0011142651 -0.0008956722 -0.0031678653 -0.0029097071 0.0023872678 0.0009578673 -0.0033788339 -0.0024550436 0.0006081772 -0.0002326796 0.0027466216 -0.0017870227 0.0013758519 -0.0034372224 0.0016277885 0.0023417717 3.7883426e-06 0.0017508677 -0.003992171 0.0009559015 0.00045753867 -0.003502345 -0.004530341 -0.0013331186 0.00045898 0.002573488 -0.0039296662 -0.0035542606 -0.0039170403 -0.0010960781
557 -0.0034511692 -0.0045524687 -0.0008712758 -0.0021707246 -0.0012189888 -0.0026300969 4.396359e-05 -0.0014427926 -0.004135126 0.00024548412 0.0033744948 0.003030132 -0.0030005628 -0.0026744606 0.0014421594 -0.0030489003 0.0011945952 0.0030721594 0.0011448074 -0.0018024069 -0.0012610699 -0.0029563028 -0.00051112886 0.0029671292 0.0013589411 0.0024332015 0.0020110996 -0.001082506 0.0033268284 -0.0032290083 -0.0026602126 -0.0008761471 -0.00067061593 -0.0014598595 -0.00061695406 0.003672612 0.0008505377 -0.0020351936 0.0015437274 -0.0040580053 0.002087417 0.004504923 -0.0045111803 0.0003434473 0.005411043 -0.0033209727 -0.0024217227 -0.0035186717 0.0038129876 0.00015957173 0.0038924883 -0.0030619868 0.00092086673 0.0014251019 -0.00070309726 0.00049648003 -0.0022419854 -0.00487771 0.0012607904 0.0032190175 0.003120961 0.002842396 -0.0007269132 0.0036923483 -0.0028549866 0.0010143867 0.00067690853 0.0023661715 0.00256525 -0.003110324 0.0029607674 -0.003826593 -0.001181972 -0.004476139 -0.001869859 0.0038839115 -0.0009215804 0.0007290329 0.0038455434 0.00465386 -0.0038246464 -0.0017520578 0.004792488 0.0032834874 -0.0010676404 -0.002395825 0.0019141219 -0.003921254 0.0027916858 -0.0019395477 -0.00010227533 -5.4322263e-06 0.00025619363 -0.00056641555 0.0034046792 0.0014643555 -0.00250361 -0.0016183844 0.0020964837 0.00028579988 -0.001519493 0.0039228476 -0.0017544435 0.00038950675 0.0037544635 0.0028583524 0.0010110145 -0.003350521 0.0012929714 -0.00182862 0.0043267263 -0.0003545154 0.0005806676 0.0017919237 -0.0011607473 -0.001946021 0.0005328007 -0.0004814122 0.0024267235 0.0038245942 -0.00018245947 0.00043508213 -0.0022904752 0.00021914952 -0.0029001338 -0.0035447981 -0.0018132463 -0.0037567818 0.0037126162 -0.0023142349 0.0035596723 -0.0031195127 0.0013432798 0.0029560942 -0.0029551978 -0.0044316337 -0.0014555475 -0.0003863225 0.0010545591 -0.003537864 -0.0035072486 0.0005849202 -0.0024844327 -0.0027372467 -0.0028711713 -0.0035749653 -0.00334026 -0.0035205476 0.000509756 -0.000980897 0.0022975937 -7.682984e-05 -0.001841861 0.0029951157 -0.0039582956 -0.0012259069 -0.0020512466 -0.0019414336 -0.0018521348 0.0024594376 -0.00069448596 0.0023652294 0.0030437768 -0.0032899126 0.0018813316 0.002525343 -0.0011434248 0.0038652704 0.0031702141 -0.0021876704 -0.0030670199 0.0005101116 -0.00043410776 -0.002326765 0.0024398474 -0.001987348 -0.0038059843 0.00022353778 0.00021097502 8.7741435e-05 -0.0014200613 0.0002823382 2.0558835e-05 0.00025469752 0.00422231 -0.0021464778 -0.0020089226 0.0017375445 0.0022344245 -0.002055086 0.004562562 0.0031888776 -0.0007104985 -0.0005106744 0.0020602343 -0.002481805 -0.0019138322 -0.0036308758 -0.0008630961 -0.0006242693 0.0009586779 -0.001228971 0.00022416796 0.00022353044 0.0016807439 6.02246e-05 -0.003947782 -0.0049817073 -0.0007736961 0.002869347 0.00047718972 -0.003060151 -0.0018533386 0.003711867 -0.0010137565 0.0023962643 -0.0014433565 0.0043361248 -0.0036236364 0.0015347791 -0.00016190672 -0.002449519 -0.0010356965 -0.0007406425 -0.0015255992 -0.0012939929 -0.0031213304 0.0012714681 0.003122791 -0.0006430752 -0.0011997708 0.0016781978 0.0036660936 -0.002828498 -0.0032367895 0.00019757645 0.0040819747 0.00015773531 -0.0030400325 -0.00063416234 0.0028694756 -0.0026145815 -0.002604079 0.004397817 -0.0037801245 0.0018450224 0.00090019737 0.0026616002 0.0024402933 -0.0019294495 -0.002808528 0.004521885 -9.8449105e-05 0.0016749069 -0.005344099 0.0036871652
1155 -0.00089254096 -0.003087041 0.0014648812 0.000725476 0.0027776775 -0.0012943932 -0.0005855512 0.0003118199 0.0027954704 -0.0014744079 0.001144668 -0.0031852445 -0.0028402698 -0.0014215561 -0.00321676 0.0019450418 0.0010558256 -0.00044500668 0.00096845726 0.0055085607 0.0039502094 -0.00057846686 0.00034888295 -0.0024731667 -0.004399067 0.0028868695 -0.0006115656 0.00012845361 -0.0013066084 -0.0022452779 0.0018693842 -0.0017131075 -0.0041055274 0.0033180502 0.0013054706 0.0045438916 0.003722521 -0.00010736292 0.0042057824 -0.0024645824 -0.0037659756 0.0027026306 0.00070729596 -0.0029640296 0.0051787216 -0.0015713049 0.0042377072 -8.103406e-05 -0.0020941591 -0.00041505066 -0.0028081648 -0.0009310011 6.783596e-06 0.0040731165 0.0029416396 -0.0031113464 0.0021296162 -0.00021492565 -0.000778009 -0.0030182893 0.0006068462 -0.0026471617 0.0021910104 -0.0020142908 0.0028355806 0.0036069653 0.0003736415 0.002617517 -0.001048749 0.0026221594 0.0021892278 -0.0035622073 -0.0016138086 0.0005329249 -3.8220976e-05 -0.00045097581 -0.00046807237 -0.001058999 0.00049245293 0.002650833 -0.002126567 -0.002071689 0.00075393013 0.0012948832 -0.00048217212 -0.0010260759 0.0024274732 -0.002236048 0.00043820904 7.810462e-05 0.002540526 -0.0029709896 -0.0022625132 -0.0027750202 0.004639614 0.00072764384 -0.00501321 -0.0011369622 -0.0018808525 0.0019259083 -0.005011379 0.0011883889 -0.0033212302 0.0011799365 0.0025343099 0.003208077 -0.0026343626 -0.0021275114 -0.001992805 -0.004065907 -0.0031258045 -0.001544023 -0.00016315615 -0.0020878615 0.0023413165 0.00031463717 0.0029159782 0.0009188714 -0.0001831647 -0.0028841652 -0.0006853635 0.001153906 -0.0018818742 -1.6300939e-05 0.0010355433 -0.0008122048 0.0044083823 0.0031590478 0.0016614652 0.002864644 0.002750006 -0.002473623 -0.0021378049 -0.0032706277 -0.003248487 0.002923886 -0.00040329408 -0.0019302856 -0.0005592988 0.002078622 -0.0013795586 -0.0019476382 0.0012197004 -0.0001443619 -0.0024830527 0.00043053625 -0.0015882457 0.0029885166 0.0023074152 -0.0032373203 0.0022311693 -0.0034019852 -0.00017945682 0.002272861 -0.0033982575 -0.00022942621 0.0038782088 -0.0019450735 -0.0039031738 0.0034964907 -0.0004593803 -0.0014017832 0.0037663486 0.0014098564 0.0018389978 0.0035901794 -0.0035312881 0.0033787054 0.0014390261 0.0017981919 0.00040009475 0.0013540167 0.0020753203 0.0026417996 -0.0025276027 -0.0019628135 -0.0013475828 0.0011884001 -0.00011341875 0.0024158503 0.0014437031 0.003433294 0.0013603353 0.003235285 0.00053602277 0.003558442 7.432507e-05 -0.0037496642 -0.002472268 -0.0011678877 0.0028183754 -0.00041459245 2.6173782e-05 0.002431957 0.004005297 -0.001260112 -0.0017299822 -0.0027602152 -0.0026077018 -0.004097688 -0.00047859756 -0.0019489082 0.0012061878 0.0013960093 -0.0018902743 -0.0038891777 -0.000755196 -0.0037807762 0.00029175825 -0.0012422395 0.0028687655 0.00077032356 0.0026856954 -0.00013063 -0.00019847779 0.0029185466 0.001502958 -0.0013636312 -0.0040420713 0.0006155759 0.0025944114 0.0024377485 -0.0033283075 0.0031403047 0.0023543972 0.0021998608 0.0038026453 -0.0028256278 -0.0038884294 0.0026014587 0.0030236014 0.001571091 0.0030628545 -0.001039729 0.0026574945 -0.0024882313 -0.0027191984 -0.002843284 -0.0013984928 0.00180728 -0.0023480759 -0.0029871655 0.0029230241 -0.0009769382 0.0031006923 -0.0017490294 0.0023279712 0.002116709 0.00035845142 -0.0019175358 -1.2053857e-05 -0.0023528219 -0.0018725741 -0.0018554785 0.0012227555 -0.0012914204
851 -0.0032164152 0.0011892255 -0.00014142497 -0.00065053627 0.0037166253 0.0015846511 -0.0007765572 -0.00031738388 0.0030578496 0.0035171055 0.0028671324 0.0019211177 0.0009252008 -0.0018287642 -0.0024875354 0.0006356436 -4.6045097e-05 0.00026293838 -0.0032609897 0.0042632767 -0.0022155624 -0.002807462 -0.0014172633 -0.0012728779 -0.0038717866 0.0005996424 -0.002042607 -0.00026137414 -0.0035222073 0.000448412 0.001537365 0.00011851013 -0.0025586782 -0.0007055546 0.002416644 0.0022732182 -0.0025906207 -0.002425182 0.0015351467 0.00031127257 -0.004508136 0.0025723646 -0.0039722295 -0.0034760933 0.0026650361 -0.0015252334 0.0016590505 0.0032653555 -0.0009708874 0.0040097516 0.0009049938 0.004253401 0.0018568494 -0.003231733 -0.0020431452 0.002375387 0.0028134813 0.0025569971 0.0028823037 0.003876475 -0.0038823057 0.0020359338 -0.0025546495 0.0018478971 0.0032132128 0.0016068342 0.0034544477 0.0014220815 -0.00065983576 0.0018244702 -0.0017076104 -0.00010042897 0.0033615518 -0.0031163995 0.001520438 -0.0034670406 0.0038216745 0.003021701 0.000872684 0.0033256225 0.0001626269 -0.0029355395 7.794372e-05 0.003630505 -0.00212243 -0.0008002756 0.0024051114 2.8601724e-05 -0.0009634673 -0.0013219125 0.002529104 -0.002486363 -0.0010602702 -0.0034289793 -0.0009790024 -0.0025519861 -0.002715252 -0.004086044 0.00049009256 -0.0038192263 -0.004999149 -0.003011669 -0.0026168884 0.0032801977 0.0016394734 0.00041697986 -0.0009280702 -0.0029195733 0.0008189778 -0.0006028038 0.0003899455 -0.00021440248 0.00040252093 0.00045770244 -0.0037189426 -0.0023160863 -0.0030185054 -0.00044110863 0.000538697 0.0031273998 -0.00091468246 -0.0017821966 0.0040852856 -0.00037230868 -0.0012388916 0.0034545169 0.0016678609 -0.0023715284 0.0030583171 0.0016227703 -0.0027305656 -0.000224888 0.0004772099 0.0018530607 -0.00086778594 -0.0015782554 0.0010414129 0.00072645774 0.0012507617 -0.0010527752 -0.0027598354 0.0027031295 0.003895505 0.0040537375 -0.005047683 0.0007958886 -0.0017885384 0.0035605968 0.0015816571 0.0026117754 0.00047679787 0.002070127 -0.002667936 0.0035310434 -0.0021184194 -0.0012527825 -0.0004775826 0.0037689325 -0.0035643864 -0.0009826793 0.003334733 0.00029790963 -0.0021949608 -0.0027590026 0.0036834846 0.002432576 0.0017923131 -0.00025298478 -0.003335254 0.001812824 0.0026767366 -0.0025072382 -0.0030910005 -0.0012353447 -0.002939603 -0.0009202059 -0.0015341216 -0.002187232 0.004758494 -0.0037681991 0.001803429 0.0023604005 -0.00020529343 0.0036958596 0.0046499344 -0.0021230073 -0.0036227265 -0.0029691926 -0.0039851307 -0.0016099396 -0.0012497563 -0.0034852556 0.0013829056 0.0009290897 0.0029016503 -0.0017278766 -0.0014800095 -6.787684e-05 -0.00026278693 0.0027873658 -0.0006217183 0.0026928587 -0.0031143578 0.002916433 -0.0009807574 0.0036108417 -0.004111887 -0.0002162988 -0.00022712623 0.00011391878 -0.0021882805 -0.0033449489 -0.0020080977 -0.0023352162 0.0010735497 7.345235e-05 -0.00016300993 0.0034916284 -0.0018152583 -0.0003647957 -0.0033517864 -0.0037668073 0.003976657 -0.0025639462 -0.0020380549 0.0015787277 0.0026307954 -0.0026884542 0.00018325173 -0.0021694 4.972731e-05 -0.0014649901 -0.0010641828 0.00048525108 0.003203782 0.0036985707 -0.0031832654 -0.002516582 0.0034077235 0.0006885641 -0.002278219 0.0006002199 0.0034590128 -8.834861e-05 -0.0043260567 0.00062449643 0.0028239423 0.002507966 0.0011632519 -0.002896606 -0.0011458817 0.00078205514 0.00095317786 -0.0038397207 -0.0043569203 0.0001440187
1450 -0.0038101268 0.0016137952 3.0382542e-05 0.0048156567 -0.0011429692 -0.0003826039 0.0039343582 -0.0021777686 -0.0024153504 0.0011280762 0.0012441544 -0.0010394481 0.0022885662 -0.004236196 0.0014146892 0.0009514707 0.0038926692 0.0028259612 0.0017204453 0.004645605 -0.0032339045 0.003862692 -0.0035456384 -0.0018743569 -0.0029887913 -0.0015130491 -0.0029754608 -0.0027180824 -0.0022647534 -0.0008680649 -0.0017685894 0.0024891922 -0.0040386827 -0.0022752625 0.0034473978 0.003634862 0.0040598116 0.00046455377 0.0006094819 -0.0030239623 0.0014406051 0.001960731 0.0022505706 0.0019401854 0.0044720015 0.0032399844 -0.003631552 -0.0030199469 0.00091027014 0.0028607913 0.0030646399 0.0024851917 0.0024892192 -0.00157075 0.0019261432 -0.0019956236 -0.0029303948 0.002564599 0.0006881858 -0.00043078896 -0.0010149155 -0.0010774793 0.0014634617 0.0021020514 -0.0003389853 -0.0030189203 -0.0008958169 0.0006370164 0.0021416333 -0.0014740556 0.00060580455 0.00031024517 -0.0033229513 -0.00015952461 -0.00042634935 0.0011149773 0.001759284 -0.000875242 -0.0008329804 0.0039202217 0.0015547134 0.0020742686 0.0024662877 0.0044389144 0.002570436 0.0003819675 0.0039969618 0.0006351062 0.0016371394 -0.000720556 -0.00050801324 -0.0019257551 -0.0029773687 0.0003657173 0.0044367556 0.004641567 -0.001827346 0.0014890701 0.0014840246 -0.0021041678 -0.0002700587 -0.0019807736 0.003455464 0.0028526997 0.0014791248 0.0020006967 0.0037002428 0.0029931036 0.00034286725 -0.0036034212 0.003769918 0.002112529 0.00079704 0.00012632474 -0.0026838835 -0.0016785247 0.0039121425 -0.0009588562 -0.002753163 0.0038935833 0.0031350804 0.0029533645 0.0007552736 -0.0036830287 0.0031259374 -0.0015171322 0.0028406887 0.0015174745 0.0042991405 -0.0037045623 0.003792359 -0.0037973973 -0.002782906 -0.0042469245 -0.0022795084 0.0024352698 0.0039083995 -0.00062705786 0.002446156 -0.0012975185 0.0028797972 0.0019283012 0.00069499336 -0.0006672315 -0.0046732365 0.0017668192 7.9778736e-05 -0.0012765306 0.0037779626 -0.00089183595 -0.0039426894 -0.0015921576 -0.00048261875 -0.0021025718 -0.0035884914 -0.002747093 0.0043343147 0.00272084 -0.0011467056 0.0029103474 0.0035955436 3.4336063e-05 0.0029001017 0.0012784139 0.0020541828 0.0028369797 -0.0019851697 0.00027964587 0.0008477218 0.0018917432 0.0010273312 0.0017218068 0.0019607523 -0.0031126752 -0.0024229512 -0.00281458 0.0028501865 0.0021209926 0.0011204861 0.0015931177 -0.0032601415 -0.0021642505 0.0015896437 0.0026633148 0.00236154 0.002644015 -0.0019879178 -0.0017155242 -0.00075976463 -0.0015657927 -0.0012721621 -0.003072293 0.0036259948 -0.00086305256 -0.00044514626 -0.0038117352 0.003928555 -0.0005972671 8.127474e-05 0.0005854671 -0.003740684 0.00046346663 0.0014032946 -0.004101468 0.001695385 0.00096927007 0.0017702092 0.000944664 -0.0018981778 -0.0027457247 0.0027943908 0.0011874314 0.0031660767 0.0034083962 0.0011445025 -0.002374932 0.0009273424 0.004020621 -0.003252828 0.003944188 -0.0027485013 0.0018851394 0.0010477524 0.0025173018 -0.0013153511 -0.0023492228 -0.0025131155 0.0013779169 -0.0021626444 0.0035980244 -0.002341626 -0.003324542 -0.001689122 0.002134059 -0.0029895417 -0.0009081087 -0.0023461764 0.0021842627 0.001603358 0.0010233466 -0.0019351384 0.0026654964 -0.002713288 -0.0003126393 -0.0026701866 -0.00016977786 -0.00023034427 0.0034654161 -0.0005575368 -0.0040031653 -0.003215805 -0.001869407 0.00017483922 0.0029793992 -0.0037375465 0.003155356
1075 0.0026731002 -0.0034861348 -0.0032022987 0.0046302653 0.0043879724 -0.0020593405 -0.0016308601 0.0023384083 0.000962485 0.003736734 -0.0027607584 -0.0037729682 0.00048602422 -0.0052338648 -0.0016982207 -0.00055689993 0.0043794764 0.0039307955 -0.0022244735 0.004092385 0.0036771002 -0.00093041634 0.003106004 0.001921967 -0.0004872527 -0.0011559416 -0.001943425 -0.0008542646 0.0025077586 -0.0028761306 -0.0008965745 0.0038114833 0.00094737567 0.0023863702 -0.0034270426 0.00074008125 0.0033663842 -0.0032975508 0.003510446 0.0030265923 -0.0012656463 0.00021275342 -0.0010776072 -0.0030075442 -0.0017451418 -0.0008237857 -0.0005916055 0.0013292407 -0.002168128 0.0025530204 -0.0024386607 -0.0026660946 0.0028207768 0.004014916 -0.0022671276 0.0009813821 -0.001571398 -0.004539549 -0.001979814 0.00336183 0.0024605568 0.0042164903 0.0022742026 0.0030144583 0.0013931807 -0.0041741794 0.002301627 0.00065933407 0.002196502 0.0001776131 -0.0006676492 0.0028842841 -2.01374e-05 -0.0011060659 -0.0017277548 -0.0033072864 -0.0031698027 0.0029941932 -0.003344412 0.004693439 -0.004275909 -0.0007186638 0.00012415802 -0.0023567877 0.0029052345 0.0036337553 0.0017621677 0.0005177374 -0.00046964854 0.0033472385 0.003102095 -0.0040900283 -0.0014180243 -0.0015338353 0.0022635486 -0.00039585558 -0.00060867355 -0.003971783 0.0011004509 0.0012767497 0.00071178906 -0.0011949952 -0.0030117747 -0.0027432626 -9.358251e-05 -0.0024531924 -0.0023601437 0.002546114 0.00355608 -0.00015958818 -0.0025200923 -0.0029812441 0.0032738762 0.0023415138 -0.0025744452 -0.0028463257 0.0007344302 0.0016053853 0.0005710438 0.0012261845 -0.0021256336 -0.0046854867 -0.0024190266 -0.00042403667 0.0016717511 0.0017667749 0.001385875 0.001805179 0.0006024081 0.001402739 -0.003374131 0.0028030677 0.0024202035 0.0011894772 0.002798827 0.0028285363 0.00063608977 6.628313e-05 0.0013546523 -0.0035423143 0.0030150958 -0.0029677495 0.004306464 -0.0007243202 -0.0019298503 -0.003582758 -0.004311641 -0.0033559431 -0.002142781 0.0009350099 -0.003316753 -0.0026063938 -0.0026137775 -0.0012403574 0.0011045092 0.0025117595 0.004190463 0.0025630104 -0.003358205 0.0027648888 -0.0030439727 -0.0005735204 -0.002752223 0.0014298846 0.0008067955 0.0028275545 0.0008862409 -0.0013812338 0.0036239524 -0.0021647222 0.0032024286 0.00078903517 -0.0013708167 -0.0016323369 -0.0030724232 -0.0023667563 0.0026571746 -0.000768428 0.004316981 -0.0037892684 0.00059393106 -0.00019304115 0.0032025152 -0.0034042865 0.003782063 -0.0018193169 -0.0037106562 -0.002719659 -0.0023018403 -0.0017080278 -0.00031187007 -0.0029584423 0.0016022322 -0.00070973655 -0.00041946056 0.0005991011 -0.0026534586 -0.002211968 0.0013605492 0.0029411109 -0.0047983914 0.0026418604 0.002442972 -0.0023402611 0.0029483803 -0.0036790706 0.0014363923 0.0008827168 -0.000308218 -0.001989175 -0.001703173 -0.0008944807 0.002068074 0.0015768185 0.0034285474 0.0040004416 0.0045743436 -0.00060457474 0.0027326425 9.11664e-05 0.0021199284 0.0012881159 0.00016150107 0.001121254 -0.0015160803 -0.0029549575 -0.0030306403 0.0010513847 0.0021034328 0.0007054229 -0.0003265784 0.0015116743 0.0034977545 -0.003414803 0.0004295792 -0.0016818297 0.001971702 0.0034573246 0.003247322 0.002443036 0.002355446 0.0029621355 0.0024433415 0.0039776424 -0.0023455755 0.003824027 0.0025554749 -0.00083594176 0.0025675043 0.0011844919 0.0024510487 0.002023629 0.0029265867 -0.00044666458 0.0019493115 0.0014405329
269 0.0021290048 -0.0019279945 0.0029067425 0.0036014814 4.5760822e-05 -0.0008869046 0.0020994535 -0.0033172707 0.0033920507 -0.0034385046 -0.0024398048 0.0010970215 0.0023380914 -0.003166736 0.0011729695 0.00420206 -0.0021430477 -0.0020079738 -0.0027624597 -0.0001454798 0.0011937725 0.0038636564 0.0021967874 -0.0005584834 6.872741e-05 0.0036955813 0.0036031827 0.0024492932 0.0019615374 -0.0033818742 -0.0012664743 -0.0021583035 0.002150271 -0.0009422499 -0.0037350906 0.0037344762 0.0041335532 -0.0023631137 0.0040505785 -0.0008451897 -0.0022572335 0.0006439639 -0.0005691504 -0.0019245705 0.0023553937 0.0021697455 0.0029387788 -0.00382723 -0.00063607254 -0.0018305242 0.0030272722 0.0027814968 -0.0020844378 0.0012957079 -0.0030381607 -0.00024384687 0.004265345 -0.0018738256 -0.0019290802 -0.0024032397 -0.0011224229 0.00014721064 0.0009867828 0.0042150505 -0.0007159874 0.00059780164 0.004344274 0.0013201755 0.0001361531 0.0036020982 0.0040929317 0.0030275893 -0.0029372757 0.003082863 0.002310948 0.003532317 -0.00089974585 0.0009888803 0.0029098452 -0.0006473486 0.0021731325 0.00046803732 0.004330305 -0.00020742121 -0.0014609296 0.0031790105 -0.0030426097 -0.0037821692 -0.0029000214 -0.0004718857 -0.00073748926 0.0025309448 0.0039306777 -0.0011179162 0.001368532 0.0017502834 -0.0016322148 -0.0038459061 0.0029055772 -0.0020405755 0.0008218482 0.003675185 0.0013846395 0.0017933417 0.0018480496 -0.00082604063 0.0016781826 0.0003058226 0.002756369 0.0014881078 0.0011783675 0.0017482042 -0.0033387018 0.003098577 0.00333557 -0.0016237737 0.001008456 -0.0017883918 0.00023392936 0.0010262128 0.003286053 -0.0003958663 0.0012819474 9.639585e-05 0.0031310248 -0.0022771442 -0.0019589942 -0.0015080448 -0.0005553881 0.0018360419 -0.0030049589 -0.0012180274 -0.0032458007 0.001471478 -0.0010270966 -0.0038646497 0.0018916331 0.003998371 -0.00035192494 -0.002260546 0.0008993384 -0.0004229488 -0.0032761768 0.003931982 -0.0045135044 -0.002080946 -0.0014562928 -0.0024544864 0.0012501626 0.004443277 0.0014588726 0.002560847 -0.0005078526 0.00065647106 -0.0023064588 -0.0029853228 0.0018642616 0.00068602787 -0.004521095 -0.0019272711 -0.0034646895 -0.0019291955 0.0018534992 0.0032397113 0.001719469 0.0009611871 0.0031340166 0.0005239182 -6.307666e-05 -0.0033109467 -0.00029652767 -0.001284268 0.0002988511 0.0029969607 -0.0037790388 -0.0015655487 -0.0033401737 -0.0012420999 -0.00038950465 0.00080172607 0.001105041 -0.0016897646 -0.0014801164 0.0005604147 0.002822491 0.0023582904 -0.0022346196 -0.0019608573 -0.0029419763 -0.00040349347 0.0015450242 0.00056212145 0.003783127 -0.001478327 0.00020654954 -0.0027760658 -0.00023726157 -0.003868104 -0.0009019651 5.4199652e-05 -0.004125778 0.0032079057 -0.003373088 -0.0044868146 -0.0036061695 0.0028681322 0.0010873349 0.0027305072 0.00032916636 0.00042766868 -0.0009057121 0.0040613697 0.002063571 0.002472167 -2.8553255e-05 0.00031349403 0.0034138015 0.00048149176 0.00046879335 -4.399478e-05 0.0021786452 0.0015904881 0.001239017 -0.00234438 -0.00140127 0.0011548484 -0.0024330644 2.6068043e-05 -0.0005664863 0.0015121552 -0.003913548 0.0036599217 -0.00028136675 -0.0024734656 0.0012175824 0.0001435434 -0.002646008 -0.0019298367 7.14025e-05 -0.0036411919 -0.0003792179 0.0010839668 -0.0015032782 0.0013512432 0.00068205636 0.0041338042 0.0010581684 0.0008635007 0.0005778199 -0.0013852089 -0.004432972 0.0039106547 -0.0015837149 -0.0044210535 -0.0037477054 -0.0016330527
155 0.0011411151 0.0013755964 0.0025852323 -0.0017655172 0.0011415612 -0.0012649354 -0.0012257034 0.0021457348 0.0010647706 -0.0007366512 -0.003134972 -0.0020295298 -0.00044415315 0.0018445615 0.0024306718 -0.002628546 -0.003233187 0.0031864825 -0.0018225332 -4.7953463e-06 0.002648281 -0.0021669744 0.001551034 -0.00088800583 -0.003689727 0.00027739746 0.0026403207 0.0038906764 0.0004040036 0.0016175521 -0.0017611055 -0.00020219466 -0.0023693237 0.00034371493 -0.0010488019 -0.0005521733 -0.0017440991 0.0026820467 0.0015129757 -0.0015713631 -0.0024924902 0.0039065015 -0.003241016 0.0006285385 0.0015838043 0.003065396 0.0028879137 -0.0015173655 0.0014127053 -0.00042531296 -0.0035525952 -0.00075496896 1.6706406e-05 0.0029724971 0.003248138 0.0032178832 -0.0025413793 0.0015178656 -0.0020310737 0.00022140302 0.00023248295 0.0030996946 0.0013375968 0.0021633806 0.0043873 -2.5347814e-05 -0.0018780768 -0.0017839649 0.0023311994 -0.0024026555 -0.00054663763 0.0015639155 -0.0014197247 -0.003337954 -0.0007802102 0.0005608043 0.0007557933 0.0019887858 -0.0018030576 0.0021114398 0.002378427 0.00035453515 0.0027950322 -0.0008371953 0.0020968255 -0.0022267145 0.0019017927 -0.0047739604 -0.0014473764 -0.0037139878 -0.00035553914 -0.0022934615 -0.001188831 -0.000374994 0.0020318534 0.0005120532 -0.0041794926 -0.003084813 0.00028427082 -0.0019396887 -0.0047249813 -0.000105305626 0.0028806871 0.0030431119 -0.0036840255 0.0015400664 -0.002042956 -0.0034217485 0.0007266173 -0.0009765511 -0.0022024089 -0.0031274937 -0.0007891945 0.0034591814 -0.003340619 0.0029994147 0.00028671644 0.00067066913 0.003489426 0.0019093293 -0.0013028141 0.000828634 0.0016203342 0.0021083117 -0.0001372622 -0.001839811 0.0010698693 -0.0022944154 0.0010100026 0.0018457891 0.0022545112 0.0034403035 -0.0029565135 -0.0027910229 0.0024131741 0.00016350766 -0.0022495005 0.0009719509 0.0020577228 -0.0008609301 -0.0021911478 0.0016384699 0.0044646044 -0.002193266 -0.0017986476 -0.0010971478 -0.002962337 -0.00079981267 -0.0014130764 0.0041559497 -0.0025694445 0.0007497019 -0.00060636044 0.0020765457 -0.00051328994 0.0044362787 0.00086175225 -0.0023026878 -0.0013669383 0.0008141753 -0.00086053467 -0.0027705962 -0.0018064528 -0.0027931556 0.0026217042 0.0015904029 0.0030559895 0.003625823 -0.0018228551 0.0012354915 0.0030060853 0.0003312091 0.0013872811 0.0024461169 -0.004586648 0.0035419997 0.001749279 0.003462817 -0.0022228828 0.0024304343 0.0024088798 -0.00023123126 -0.0021485153 0.0022081526 -0.0018789379 -0.0018537004 0.00029581497 0.002850797 0.0026079642 -0.0019346583 -0.002781484 0.0037244132 0.0034200477 -0.0020188666 -0.0030882377 -0.0024945354 -0.0012764446 -0.0020788785 -0.00021032298 -0.0005299946 -0.0020584394 -0.0025540532 0.003978176 -0.0025908328 -0.0030833117 0.00300432 -0.0001457294 0.0023465229 -0.0024875437 -0.0025780902 0.00041112275 -1.7497423e-05 -0.0025700915 0.0002596594 0.0016673333 0.0025536646 0.0035678162 0.002092031 -0.0026133829 -0.00045319292 -0.00140913 0.0024800226 -0.00226982 0.000485705 1.5282247e-05 -0.0029045143 -0.0029091062 0.0024119788 -0.003654827 6.2925565e-06 0.00045114648 0.0032493481 -0.0026489887 0.00092942955 0.0033427018 -0.0016839037 -0.0009745225 0.0017585016 0.0023701678 0.000553084 0.0024113131 0.0005765753 0.00044962633 -0.00018472885 -0.0035123643 0.001458026 0.0013267352 -0.0033325139 -0.0007915545 -0.0006225025 -0.0010843198 0.004252715 -0.0018316619 -0.0030263436 0.0016038972 -0.0028906304
1186 -0.0040046964 -0.0012822051 -0.0031105434 0.00085780234 0.0015142711 -0.0010785741 -0.0018058037 -0.0006191758 -0.0008132902 0.0017712513 0.0033178348 0.0022656277 0.0032275077 -0.004471146 0.003772001 -0.00034868208 0.0038815166 0.0013812773 0.00069744175 -0.0025666878 -0.0033998222 0.0034952003 -0.0014975087 0.0004892616 0.001608227 0.000113087204 0.0039090593 -0.00026841916 -0.004154921 -0.0030298545 -0.0001727714 -0.0032960912 0.0025798639 0.0012968999 -0.003718258 0.00399053 0.004394779 0.0012873212 0.0031115492 -0.0043059275 -0.0005561421 -0.002875236 -0.0020077312 -0.00047870315 0.00092297007 0.00040735956 0.0015152923 0.00057232083 0.002442349 0.003250576 -0.0021516674 0.0034381119 0.001975715 0.004145704 0.0012562107 -0.0015866478 -0.0010194553 -0.0010423918 -0.0004202326 0.004369308 0.000480733 0.0019431409 0.001029557 -0.0032496934 0.0032813265 0.0030295558 -0.00029478618 0.0015139547 -0.0027061915 -0.0027137648 0.00371515 -0.0012717012 0.002142056 -8.184529e-05 -0.0006941483 0.0012038635 -0.0016486963 -0.00096095854 0.00073718745 0.0027100283 -0.0009293828 -6.855456e-05 -0.0024996067 0.0045943856 -0.0037419223 0.0034270757 0.0019219572 -0.0036802676 -0.0023652723 -0.00329117 -0.0017827828 0.0027049105 0.0040592323 0.0001238795 0.0010461524 0.0046963105 -0.0028124372 -0.0011067793 0.0012604948 -0.0028508257 -0.0046731425 -0.0035576608 0.003712246 0.0026734832 -0.0016976809 -0.0030051777 0.0007828742 0.001189955 5.6591445e-05 -0.00014088464 -0.0012328759 0.0014357533 0.0006495174 0.0040680473 -0.004245051 -0.0021159474 -0.0031930548 2.8470824e-05 -0.0033030268 0.0020288548 -0.0024674158 -0.002912016 0.0022037535 -0.0035015165 0.00043858745 -0.0029435358 0.0043045105 0.003218152 0.0011384321 0.0022186537 0.0019599076 -0.0025567838 0.0038101505 -0.004383815 0.0030876312 0.00076292193 -0.001012941 -0.0009159722 0.0043186364 -0.002050512 0.0030561364 -0.0026655186 0.0038865304 0.00040068218 0.0016768688 -0.0013536063 0.0019012111 0.0032855386 0.0015864723 0.0009947886 0.0016535112 0.0026416155 0.0029457712 0.0037037313 0.0016226497 0.0035152666 0.0038660716 -0.0001810693 -0.0011862178 0.0006008059 0.00040956342 0.0005143701 -0.0031032257 -0.00392272 -0.000868897 0.0035684274 -0.0015629817 -0.0019332321 0.0022849522 0.0006411917 0.00050208066 0.001195068 0.0014844019 0.0023637707 -0.0004253228 0.00030646636 0.0027813213 0.0012391894 -0.00094476313 0.0025634083 0.0018648894 0.0014258694 -0.0010661734 0.0013718404 0.003220122 0.0029100778 -0.0006420637 -0.0036507598 -0.0005850123 -8.294295e-05 0.0022500053 -0.003804337 0.0046723406 -0.003063091 0.002456736 -0.0043126615 0.004041797 0.0022417183 2.4358505e-05 -0.0016407238 -0.00083352334 7.9360456e-05 -0.0022733882 0.0016907764 0.0007026561 0.001458122 -0.0039227726 0.0024905228 -0.0003923469 4.322966e-05 -0.0035783683 0.0019203473 0.0035640337 0.0035997836 -0.0021915531 -0.0030920438 -0.0013610711 0.00039762224 -0.00399125 -0.0030232412 -0.0006368449 0.0006636881 -0.0035122524 -0.0017047544 0.0006915975 0.0022083288 0.0005907038 -0.0001446587 -0.0033225662 -0.0023129813 -0.00081710925 0.003179154 0.0023693196 -0.000948852 0.00017011474 -0.0028892527 -0.00017572234 -0.00203787 0.002505272 -0.00093448313 -0.0024823733 -0.0035283677 -0.00073269155 -0.002418118 -0.0009040986 -0.001352595 -0.0004845942 -0.0011425129 -0.0036608079 -0.0010569406 -0.00026074576 -0.00092441874 -0.0036336316 -0.0020321184 -0.004709647 -0.00026980657
293 0.002065875 -0.0016774392 0.0014800744 0.0025342861 0.003854091 0.0019361164 0.004364908 -0.0041603404 -0.0034884524 -0.0023807862 -0.0029059832 -0.0031698286 -0.0031278515 -0.0019793587 0.00072705495 -0.00054461183 -0.0031317046 0.002305326 -0.00029696623 0.0028832066 0.0032352186 0.003129885 -0.0005736274 0.0008539725 -0.002850177 0.0009517326 0.0019071924 0.004135976 -0.001670175 0.0007624672 -0.0019842568 -0.0008607285 0.0029141607 -0.0016273623 -0.00072282134 -0.0030077444 -0.002957716 0.002654764 -0.0019867874 0.0015234922 -0.0035115941 -0.00032925775 -0.003613766 0.0024006958 0.0033845447 0.0019388526 0.003655083 -0.000571851 -0.0034132274 0.0037605972 -0.0018799498 0.003232816 0.0019368676 -0.00016506166 -0.0034805913 -0.00096373825 0.002986435 -0.0034380043 0.00068002474 -0.0027744903 0.003602749 -0.00070313894 0.0034929614 -0.0022245888 -0.0033276405 -0.0035453679 -0.0012634418 0.0023447808 -0.00032620793 0.0034911714 0.0016840725 0.001420466 0.00071490044 0.0026312496 -0.0009906827 0.0028615056 -0.0037461426 0.0008535793 -7.97883e-05 0.0009127121 0.0023379442 -0.0015393435 -0.0004220123 0.0007195606 -0.00043606738 -0.00074937154 0.0028618553 -0.0035686698 0.002805055 -0.0001590762 0.0011661579 0.001081881 0.00015615302 7.5143207e-06 -0.0005589503 0.0027465448 -0.00073436036 -0.0019347396 -0.0035005517 -0.004218027 -0.0006784866 -0.0022365935 -0.0002736394 -0.0011410941 -0.0032083855 0.00051170914 0.0025081744 -0.000763316 -0.002390063 0.00057991006 0.00023503504 -0.0025732873 -0.0002887669 0.0002829996 -0.0013648389 -0.0039950283 0.0033810406 0.0016777129 -0.0013376754 0.0027913973 0.0002665836 0.002423679 -0.00064009853 0.002610165 -9.844112e-05 -0.0025135863 -0.0014992537 0.0036739663 0.00073961087 0.00049185887 0.0037313607 -0.0027816128 -0.000772953 -0.0036950733 -0.0027505616 -0.0035157306 0.0017932947 0.0015409497 0.0028786052 0.0010594509 0.00060555426 0.0018780321 -0.0003560827 0.0018326375 0.0021107376 0.00013906695 0.0022305558 -0.0028170045 0.003104832 0.0022544782 0.0018579607 -0.004349976 -0.00046433046 0.0016105634 -0.003140856 -0.0021058023 0.0030063952 -0.0028300905 -0.002662124 0.0031018234 -0.0024849502 0.0036544946 0.00044731994 0.0015138991 -0.0010352544 -0.0021385835 -0.003675816 0.0006548585 -0.0015090203 -0.0011300556 0.0029191258 -0.0033524097 -0.0022484004 -0.0018739706 -0.0034979228 -0.0036454287 -0.0013066693 0.0038784994 0.003985311 -0.0020082078 -0.003333427 -0.00062564376 -0.0034054676 -0.0018761196 -0.0016336587 0.0014849948 -0.00393855 6.164235e-05 0.00020898964 0.0019791427 -0.00012515942 -0.00395416 0.0028022788 -0.0027348204 0.0021489107 0.00035310688 0.003631016 1.8234672e-05 -0.0012155729 0.0023058148 -0.0033998769 -0.0035161285 0.0015953513 -0.0015325268 -0.0017921014 -0.00090351247 -0.0047246395 -0.00065418263 -0.00088296476 -0.00095548463 0.0010124822 0.0021854413 0.0033460688 -0.0025158832 -0.0016280117 -0.0034973214 -0.0028809423 -0.000771356 -0.0012108182 -0.0031538922 -0.002005341 -0.00069196784 0.002521301 0.00047115854 0.0037953393 -0.0037267285 -0.0017423765 -0.00033846477 0.0032210925 0.00063331466 0.00018192275 0.00067727326 0.001396797 -0.004001385 0.00096563005 0.0029014456 0.0023254054 0.0015284404 -0.0030835979 -0.0016760328 0.002659948 -7.389856e-05 -0.00394602 0.0022604817 -0.0025508297 0.0027393638 0.0026099877 -0.0018312825 0.00057999615 0.0015074157 -0.002119808 -3.9148676e-05 0.0030842782 0.0029836232 -0.004736874 0.0030304953
652 0.0034872587 -0.0018943495 0.0011428765 -0.00023237993 0.0045588138 -0.00035210155 0.0031637165 0.0030581974 0.0011365756 -0.0023327249 -0.0006364519 0.00040001998 0.0005789297 -0.00013819487 0.003994963 0.0024748552 0.0045490703 -0.0029963357 -0.0034092125 0.0023982422 0.0020638201 -0.00033333423 -0.0032893838 -0.002038719 -0.004624227 0.004266822 0.0017046096 -0.0027065095 0.00083833915 0.0011262867 -0.0022163682 -0.0023571507 2.4591565e-05 0.0034663596 -0.004087512 0.0009970665 -0.0016295857 -0.0017631466 0.0017181763 -0.0026298785 -0.002046527 0.0012403856 -0.0034045253 0.002271262 0.0031817025 -0.0035027834 -0.00057953474 0.00081683166 -0.0029048375 -0.0024792524 -0.0030976243 -0.0018571095 0.0031009032 0.0032428645 0.00026084535 -0.0037568319 0.0029551587 0.0007283495 0.00011317947 -0.0027975792 -0.00084439944 0.0005511136 -0.0035091974 0.001407859 0.0009962579 -0.0030729668 -0.0026199315 0.0032882974 -0.0034060637 -0.0025428557 0.002736817 -0.0001912831 -0.0018807004 -0.0031590736 -0.00037443408 0.0020041382 -0.0025317895 -0.0023368385 -0.0016858021 -0.0008864257 -0.003796346 -0.0045401915 0.0038491082 0.004204321 -0.0020477977 -0.0026991689 -8.707872e-05 -0.0027984243 0.0030551923 0.00076691195 -0.0020595272 -0.0016157834 -0.0035729543 -7.604419e-05 -0.0004909332 0.00016162585 0.0010003228 0.002027822 0.0017361046 -0.0029896412 0.0014430125 -0.0037377144 -0.0025070016 -0.0022586023 -0.00062387064 0.0007563551 -0.0011350175 0.0010208063 0.0042899973 0.0016281566 8.810338e-05 0.0028131113 0.00067124044 -5.546108e-05 -0.0030324932 0.002654457 -0.0030672569 -0.00048189375 0.002834845 -0.00096061616 0.00073627627 -0.0036352633 0.0022702958 0.002537266 -0.003891738 -0.0013030911 0.0038021905 0.0009703234 0.0004926376 -5.893658e-05 -0.003651462 0.003966316 -0.0007974985 -0.002681684 0.0010528638 -0.000117789605 -0.002115567 0.0030092883 0.00015497529 -0.0023614776 0.0024616574 0.0020648758 0.004269361 0.0012937416 -0.0018475058 -0.0031713892 0.0012321017 0.0032772783 0.0004317932 5.887138e-05 -0.0019405882 -0.0007882816 -0.0034351314 0.0027972904 -0.0010384127 0.0042563854 -0.0019688117 -0.002134729 -0.00353993 -0.0028350672 0.001591492 0.0023416025 0.0007415593 0.0012131426 -0.0035877626 -0.0003669973 -0.0030972643 0.0023917041 -0.00055710593 0.0036147228 -0.0016468395 0.0023354448 0.0018387847 0.00077674066 -0.0014119148 0.0031933803 -1.255786e-05 0.003407265 0.0023492747 0.0020014779 0.0017409364 -0.002768343 -0.0018051607 0.00067366695 0.00087728736 0.0010019033 -0.0008902578 0.0025795358 -0.002493046 -0.0001644836 0.0037129442 0.0010060563 0.0028607477 0.0012429936 -0.00026584172 -0.0041241506 0.0015359662 -0.0045592287 -0.0017164681 -0.0042603025 -0.0011267633 -0.0033161137 0.0033633115 -0.0027459688 0.0035311165 -0.0035150954 -0.0030777438 -0.00051850954 -0.0018946402 0.0006853732 -0.0013765999 0.00019767512 -0.0010205263 -0.0028209772 0.0029027136 0.00027561496 0.0037407915 -0.0020027468 0.00048329827 -0.0034840365 0.0031652758 0.002596196 -0.0022285103 0.0028982537 -0.0017999243 -0.0040102717 0.00047519378 0.0014531706 -0.0036806406 -0.0033158713 0.0028422438 0.0010168183 0.00048651203 0.0005016999 -0.0018568849 0.0019189048 0.0012031597 0.003718663 -0.0018239262 0.00075030344 0.0017207213 -0.0023091808 -0.0037439626 0.0040123696 0.002337976 -0.001339553 0.0028691287 0.0003420782 -0.0027649847 -0.0012516322 -0.0031051936 0.0032402377 -0.00018174271 -0.004262379 -0.0015816786 -0.0012205152
388 0.0019388383 -0.0012586261 0.0032860239 0.0017709103 -0.0003669716 0.0031507977 0.0021048961 -0.002295523 -0.002867422 -0.00068016426 -0.0017566509 0.0015078755 -0.0038911763 -0.0038004892 0.0015406639 0.00085953163 0.0030838298 -0.0009189987 -0.0010113692 0.0025689672 0.0026052122 0.0006312654 0.003396273 0.0006092658 -0.0041574347 -0.00010461631 -0.0032503724 -0.0017839535 -0.001309759 -0.0043480205 0.0040678205 0.00094718946 -0.0007664176 -0.002471631 -0.003766673 -0.0028672519 0.00482347 -0.0023803022 0.002406245 -0.002413342 0.0028266339 0.0026155976 -0.0003325972 -0.0023358937 0.0020489076 -0.0012065149 0.0033264938 0.0013458348 0.0007902955 0.0019165707 0.0016421074 -0.0025087327 0.0030768455 0.0012690759 -0.0031549043 0.0029262418 0.00018940053 0.001972832 -0.00039926748 0.0035603181 0.0011488396 -0.0011207109 -0.001985446 0.0040381663 0.0014785883 -0.0026283255 0.00071727147 0.00018331375 0.00027503658 -0.003458326 0.0036022617 0.0005079422 0.0024405406 0.0007793688 -0.0016185924 0.0015415659 -0.00041570913 -0.0042181457 0.003579173 0.0049589593 0.0033626053 -0.0021525105 -0.0024063294 0.0031711932 -0.0034065088 0.0043283594 0.0017261392 0.0007770099 0.0020810124 3.1434654e-05 -0.00059508614 0.00018826906 0.004363612 -0.0038709717 0.00037380663 0.00024565565 0.00083575933 0.0017320393 -0.0016901464 0.00092707865 -0.0030979752 0.0014718105 0.0035175374 0.0021323387 -0.0015663296 -0.0009335685 0.0035372595 0.0040109954 0.0031416626 -0.0023333298 -9.915179e-05 -0.0032201235 -0.0015383299 0.0019796358 -0.0030129745 -0.002531548 0.0038668755 0.004059635 0.002931407 0.0006202224 -0.0032792273 -0.0038304157 0.0009548863 -0.004244918 -0.0031559302 0.00062927796 -0.0005208834 -0.0038598727 0.0031674847 -0.0036669152 -0.002590321 -0.0008588672 0.00076701475 -0.0011240352 -0.0021696242 0.0020960872 0.0037840179 -0.002203766 0.00501069 0.0030085563 -0.0032231163 -0.0011407089 0.0024681578 0.003648364 -0.0034926208 -0.0028695248 0.0013838811 -0.0038387133 -0.0015704795 0.00021515579 0.0017479019 -0.0028828445 0.0013626557 0.00034843085 -0.00052536756 0.0032084063 0.0012774954 0.0028964353 -0.0012552796 -0.0033238258 0.0041844216 -0.0015298008 0.0023085824 -0.0016886111 -0.0026406192 -0.0026046773 0.001639537 0.0010035598 0.0011862748 -0.003251184 -0.0023843064 -0.0027228522 0.0035026935 -0.0033636237 0.0005806795 -0.0002761928 -0.0010271345 0.0036405164 -0.00012453838 -0.0028498413 1.3027422e-05 0.0034297693 0.0040151128 -0.0013503763 0.0021169677 0.0022535315 -0.0035432922 0.002219991 -0.0034692031 0.0004490509 0.0028787544 0.0015900182 -0.0006497612 0.00047522187 0.003270255 0.00262695 -0.0033717605 0.0012325515 0.0013462353 -0.0011809047 0.0026777822 -0.0018571739 -0.00045616255 -0.0035201092 -0.0017937584 0.00012623324 -0.002819995 -0.0032371597 0.0017947438 -0.0020499122 -0.0025879715 0.003508327 0.005121323 0.002643777 0.0004662589 0.00021795253 0.00066670025 0.0036769947 -0.0035422803 0.00058866706 0.0018072635 -0.0005578514 0.00075883145 0.0010122518 0.0044780457 0.00019473405 0.0037721125 -0.0021608677 0.0015132686 -0.0011321398 -0.002465887 0.0007251606 -0.0013823793 -0.0026921022 0.00067557 0.0046663773 -0.0021328016 -0.0038676485 -0.0009816227 0.0028717278 -0.004626287 0.0041176276 -0.00046671927 0.001409196 -0.0010926151 -0.0019698038 0.0018063224 0.0024960907 -0.0035100244 -0.00139708 -0.00072835275 0.0025600847 0.0018694045 -0.0022866123 0.0012626413 -0.0020750558
754 -0.0011581705 0.0029070196 0.0023740835 -0.0025194758 0.00010419073 -0.003723158 0.00022397035 0.0016704756 -0.0032820737 0.0024758906 0.0024124433 -0.0014374076 -0.0040205345 -0.0020477762 -0.0008497838 0.0021363078 0.0038650634 0.0011745008 -0.0016039114 0.0024467853 -0.0021020137 -0.00044450263 -0.00094413786 0.0030163275 -0.003213436 -0.0023827301 0.0010136856 0.0013822105 -0.0032168839 -0.0027300734 -0.00017327719 -0.0011952309 -0.0037880722 -0.0017723462 -0.0014078149 0.0032916968 0.0013363552 -0.0003572918 0.00043868032 -0.001856788 0.000270681 0.0011464711 0.0017748214 -0.00095239736 -0.0022162783 0.0002707947 0.004317618 -0.0024210531 -0.0018347695 -0.00067444687 0.0034010927 -0.0001317722 0.003316512 -0.0029220425 0.0028625838 -0.0042584003 0.004262103 -0.00022965058 0.0011644952 -0.0018198589 0.0034131815 0.0028467658 -0.0024774594 -0.003590941 0.0032691755 -0.002388853 -0.0032247682 0.0017082801 -0.00227459 -0.0030976536 0.004349462 -0.0005542251 -0.0011988904 -0.002268015 -0.0017081379 -0.0018398319 -0.0022930985 -0.0024435783 -0.002879439 0.00452332 0.00214525 -0.0019702073 0.0017047825 -0.0020237016 0.0026433247 0.004040474 0.0008858971 -0.0038330753 -0.0014833777 0.0017182467 -0.0010334778 0.0011089739 0.004011423 0.0009058006 -0.0012034945 0.0032312092 -0.0020690556 -0.0032084328 0.0026648499 -0.0039721243 -0.0014574063 -0.0004720023 -0.0030220866 0.00017309315 0.0024492883 -0.0018389175 -0.0023999442 0.0026055377 -0.000795653 -0.0038490656 0.0005523341 -0.0005174061 0.0031016655 0.00085449417 0.0029379698 -0.0038937482 0.002108618 0.0026524707 2.7010687e-05 -0.0011612059 0.00060735946 -0.00086049584 -0.003059146 -0.0030505753 0.00044344275 -0.0009956851 0.0042064763 -0.0005156662 0.0029375923 0.00082936604 0.0035650162 -0.0038513434 0.0008933129 -0.0011654565 0.00065405277 -0.00037500262 -0.0021901887 0.0041558444 -0.00021759482 0.0008350796 -0.0027949437 0.0010242815 0.004378409 0.0002170348 0.0010239651 -8.078616e-06 0.0028007934 0.0034985177 0.0004668523 -0.00015767704 -0.0039771665 0.00326443 -0.0013804698 0.0013026802 -0.0018297677 0.0037979311 0.0038324464 0.00042992548 0.0003446302 0.0024444335 0.0012141265 0.0028637769 0.0004115483 -0.0010805896 0.0022923155 -0.0013597424 -0.00121204 0.00446139 -0.0030330112 -0.0011914254 -0.0014250816 0.0019117766 0.0033544512 -0.0023407128 0.00119711 -0.00015471807 -0.004447641 -0.000788973 0.0004391329 -0.0017455326 -0.0005363066 -0.0016968005 0.002655311 0.0036739816 0.00025624683 0.0017031681 -0.0014408969 -0.0007529402 -0.0035269686 0.000389433 0.0022969393 0.002560235 0.0035082642 0.0008251475 0.0021172808 -0.0034115477 -0.00039564632 -0.003129187 0.0021426263 0.0026948692 -0.002522599 0.00024001522 0.0021199696 -2.1966582e-05 1.5901423e-05 -0.0027528 0.002756761 -0.0036786825 -0.0029433717 -0.0021110794 -0.0023922855 -0.0008951851 -0.0025744487 0.0012804628 -0.0010283337 -0.0010440123 0.003110436 0.0022168476 -0.00016855157 -0.0003679421 0.003953843 0.00028606429 0.002081026 0.0032833621 -0.0032438715 -0.0041784206 0.0038357808 0.001194059 -0.0010530448 0.0020863465 -0.0022607464 -0.0022057346 -0.0030066285 0.0024890858 -0.0013327055 -0.0020314467 -0.0020075925 0.0022557785 -0.0008186395 -0.0025213938 -0.0013390697 -0.0003986948 -0.0016311402 -0.00041794425 0.0013981373 0.0008095329 -0.0007621395 0.0012029827 0.0015307035 -0.0043767444 -0.0039166817 0.0032193365 -0.0042375796 -0.00045357313 -0.004781424 0.0033760509
346 -0.002017028 -0.0031592478 -0.00044470592 0.00032988784 0.0036587527 0.0034369866 0.00052402564 0.0006490578 0.0014109534 0.00047094817 -0.0020889782 -0.00032780858 0.0007680343 0.0023248782 -0.001296771 -0.0033189098 0.0024498277 0.0042115636 -0.0034520957 0.0009688446 -0.0017437993 0.0026072126 0.00345474 -0.0007858382 0.001213387 0.002808779 0.0017680409 -0.0030049372 0.0008675344 -0.00084454974 -0.0007066606 0.0021437027 -0.00073847367 0.0038031838 -0.0005504412 0.0007083035 -8.270409e-05 -0.004285697 -0.0035285812 0.0013885796 -0.0032630041 0.0018064434 0.00057661266 -0.003274258 -0.00024816894 -0.0023804896 -0.0032446324 -0.00030259162 0.004190591 -0.0023091426 -0.0015449873 0.003541816 0.0033297953 0.004078665 -0.004380447 0.0017047597 -0.0021523365 0.0018775495 0.002667575 -0.0008472209 0.0026888764 -0.0026311784 0.0014437983 0.0021470403 0.0029221054 0.0021778517 -0.0006492939 0.0020871477 -0.0026673225 -0.0027615868 0.0015237501 -0.0037539839 -0.00066391664 -0.00032230208 0.0032486042 -0.0027609968 -0.0010354763 -0.0019008793 -0.00188498 0.0005676812 0.0014098616 -0.0022188765 -0.00013984049 0.0043157516 -0.0007739917 -0.00076468487 0.003342525 -0.0004022397 -0.00039844532 0.0036152117 0.0033778802 0.0012569814 0.0015749183 -0.0015847121 0.0038921265 0.0029682275 -0.003016623 -0.003094571 -0.00025887438 -0.0034162703 0.00046022664 -0.0034925272 -0.000424451 0.0017650815 0.0013972819 0.0014545154 -0.0033505042 0.0015322181 0.0026338126 0.0007280686 0.003501394 0.00015542866 0.0025820986 0.004014991 -0.00062952674 -0.00035178594 0.0012312243 -0.0027363622 0.002005547 -0.0019662923 -0.0012806634 -0.0012649649 0.0034359752 0.000566837 -0.00046204517 -0.0011254818 -0.0003830603 -0.0006023502 -0.0016300251 -0.0017059896 0.00026987435 0.0016838714 0.00065845135 0.002133734 0.00020014598 -0.0015814075 -0.0025677013 0.0028578334 0.0035618276 -0.0023242757 0.0017189652 0.0033953795 -0.0019445949 -0.0005402598 -0.0049535288 0.0011824066 -0.0017237919 0.0005592569 0.004237543 -0.0026609416 -0.0039518024 8.336942e-05 -0.0035887945 -0.0031631456 -0.004694579 0.00031488045 5.2805968e-05 0.00016702649 -0.0012573032 0.003542627 0.0037666014 -0.0022442194 0.003652283 -0.003696943 -0.00047261443 0.0009918859 -8.8087094e-05 -0.0006848038 0.00069370074 0.000581656 -0.0038941829 -0.002106725 -0.0029355488 0.001698498 -0.0011794813 -0.0030377577 0.0015070292 0.0001252828 0.0018735501 0.00214835 -0.0017705421 0.0033447542 -0.0028117718 -0.0013056953 -0.0023048637 0.0005522715 -0.0038443457 0.0033199072 0.0015200491 -0.0030090222 0.003138001 0.0024913508 -0.0021256562 0.0013971835 -0.0028577652 0.0030977952 0.002108206 -0.0007381687 -0.0039645657 -0.00060429703 -0.0008218955 0.000232384 0.0035949294 -0.0016692766 -0.0036209475 -0.0034591705 -0.0013451925 -0.00025869827 -0.0005446645 -0.0007195165 0.003442294 0.00046402146 0.0034088304 0.0022977218 -0.002540587 -0.00092196005 -0.0022746832 -0.002044249 -0.0018070752 0.0027475164 -0.0002436164 0.0036440762 -0.0006884564 -0.0023978865 0.0019713272 0.00030125552 -0.00022868115 -0.00088130607 -0.0026655006 0.0018153439 -0.0035498666 -0.0032876981 -0.003433901 0.0029475377 0.0012553735 0.0036280677 0.004260588 -0.0030878903 0.0018457485 0.0010392916 0.0018532594 -0.0011412672 0.0034527995 -0.0020025896 0.002500541 0.002894466 0.0003079955 0.0020234825 0.0021967147 0.00021546191 0.002032054 0.0016110372 -0.0013116994 0.002370712 0.0006667651 -0.0013623268
7336 0.00047807404 -0.0005242039 0.002168881 -0.0016062851 -0.0011813648 -0.0006093877 0.002146115 -0.0029862272 0.0027941314 -0.0010609078 0.0022789822 0.0010988818 0.002583593 -0.0024295105 -0.0011600915 0.001701948 -0.0008603302 0.0026298366 -0.0028802927 0.0019994427 6.733154e-05 -0.00010874013 0.00075314334 -0.0014452789 -0.0022751084 -0.003098787 0.0011280183 0.0023461394 -0.0027000348 0.0033133565 0.0017687959 -0.0019661929 -0.000732709 0.0014677608 -0.0029103898 0.0012432672 0.0028017536 0.0017915078 0.002278074 0.0010272003 -0.0017451806 -0.0017617787 0.0027538582 -0.0032762145 0.00023292894 -0.0013331751 0.0028454673 -0.0027750405 0.0015540931 0.0010031053 -0.0015868113 -0.0030748034 -0.0034303602 0.0014725667 -0.004210229 0.0019017166 -0.0006632994 -0.004211011 -0.0019073493 0.0032966249 -0.0005462543 0.002813542 -0.0038026527 -0.003543637 -0.0016937717 0.00026753746 -0.0025662067 -0.0032872297 -0.0036878476 -0.00029631954 0.003276237 -0.003299765 -0.0025517626 0.00014538018 0.0012972952 -0.003361648 0.0030659134 -0.0035387774 0.0020055266 0.0042641666 0.0019959998 0.002064426 0.0037516633 0.0020003782 -0.003014301 0.0028283163 -0.0028101855 -0.0031425196 0.002049797 -0.0032097455 -0.0022296787 -0.001548795 0.0015257844 0.0014761037 0.0014200747 0.0028933485 -0.0017832823 0.0012278908 -0.0028558807 -0.0008833346 -0.0037306694 0.00011872795 0.0020432496 0.0022988555 -0.0017098718 0.0009264431 0.0033037313 -0.0020955876 -0.0011999898 -0.00071171205 -0.0015459651 0.0031253053 0.0030859958 0.0041618925 0.0036000302 -0.003408269 0.00019110023 -0.0028494752 -0.0021995995 -0.0034638266 0.0014964218 -0.00026261763 -0.0026842821 0.0028493102 0.00038524932 -7.17969e-05 -0.0010773329 -0.0013982793 -0.00058488577 0.00305349 0.0012898827 -0.0022661244 0.0017613326 -1.0791683e-05 -0.0012777364 0.0028192333 -0.0012620499 0.0033015348 -0.0010828944 -0.0028709574 -0.0019490339 -0.0017731972 -1.6320926e-05 -0.00018097943 0.0009311054 0.002201049 -0.0009177283 0.00131763 -0.00040124543 0.00064065645 -0.00062812155 -0.0013789076 -0.0020985703 -0.001380703 -0.0007448254 0.000975926 -0.0032446585 0.0022041963 -0.001150729 -0.0012290952 -0.0016738101 -0.0014798968 -0.0016258513 -0.004014523 -0.00015630834 -0.0030185075 -0.001990958 -0.0021771004 0.0042920494 -0.00040417284 -0.003182808 0.0019299198 -0.003022606 -0.00055952906 0.0003048706 -0.0028756578 -0.004087124 -0.0024276269 0.003639743 0.0035761446 0.0014255381 0.0012072711 0.0018304001 -0.0016094925 0.0044799238 0.002942844 0.00079946197 0.0031124277 -0.003834595 0.00032402284 0.0039729923 -0.0004341952 -0.001951945 -0.0012721987 -0.0009086432 -0.0012780919 -0.00059353275 0.0022908 -0.00051032443 0.0014250756 -0.0020972944 0.0030520498 -0.0024807164 -0.004143275 -0.0017812889 -0.0030443105 -0.0027115892 -0.0004267987 0.00050677254 0.0008186268 0.0020828624 -0.00020513833 0.0016266545 0.0006542008 0.0033611858 0.003108085 -0.0002533931 0.0010292219 -0.002999055 -0.0018699992 -0.0027572443 0.00016847877 -0.0017808971 -0.001672982 0.0010718314 0.00064064487 -0.0036488585 0.00068905664 0.0018084798 0.0019037918 -0.0015478182 0.0038906413 0.0039236327 -0.00021059091 0.000113703056 -0.0029727584 -0.0016572836 -0.00016058648 0.0016600842 -8.693972e-06 -0.003919231 0.0024013927 -0.0031485513 0.0036818716 0.001995673 -0.0025084745 0.0016046133 0.0031887824 -0.002665552 -0.003037311 0.0030181394 0.001217732 0.003363602 -0.0042304927 -0.0015101302 0.0027450328
868 -0.00090120366 -0.0011645815 -0.002577146 -0.0016397878 -0.0019208152 0.0032549642 -1.9666371e-05 -0.003631305 0.0028438065 -0.000860309 -0.00042855495 -0.0002572715 0.0010067619 -0.0025800115 -6.0594944e-06 -0.000649118 0.003750082 0.0030263932 -0.00021106227 -0.0014096892 0.0015553155 0.0005195687 -0.0026633039 -0.0027772833 -0.0018904688 0.0012361356 -0.0031325272 -0.0017931118 0.0028852257 -0.0017123503 0.003240101 0.0002451948 -0.002395301 -0.002005849 -0.00027440442 0.0023217958 -0.0017251155 -0.0029645239 -0.002350123 0.0022061812 -0.001613554 0.0022395216 -0.0010371422 -0.003330509 0.00044604862 7.652357e-05 0.0016107444 -0.003672296 -0.0024496147 -0.0023496717 0.001246767 -0.0012942867 0.0001073886 0.001878907 0.0012667394 0.0006523878 -0.00069133966 -0.0003714896 -0.0020115115 -0.0020629985 0.0034373456 -0.0012698926 -0.0039795786 0.0016921937 0.003774028 -0.00016730836 0.001243104 -0.00085335626 -0.0018507129 -0.0035930509 -0.002686006 -0.003560738 -0.002761761 0.0027040918 0.0037768395 -0.000658535 -6.942072e-05 0.0028370745 0.00068474404 -0.0013451595 0.00067985966 0.000355373 -0.0008984167 -0.001215855 0.003496236 0.0035506464 -0.0029951225 -0.002903721 0.00029918217 0.00022304239 -0.003139994 0.003551078 -0.0018684332 0.0012033384 0.0042306106 0.0011963336 0.0009660064 -0.00163699 -0.0038387591 1.7476596e-05 -0.0011410379 -0.0037935746 0.002912058 -0.0024581954 0.0022184034 -0.0015554749 -0.0034107664 -0.003425526 0.0028840152 -0.002549068 0.0023795075 -0.0010440887 0.003913073 0.0032547875 0.0036278933 0.0032798855 -0.00281109 -0.0036075772 -0.0023710858 -0.00033066803 0.0019788952 0.0010196121 -0.0006572432 0.0016755674 -0.0013640845 -0.0027280943 0.002208092 -0.0039362563 0.00068629935 -0.002032282 0.0031597149 -0.001584213 0.0010658277 -0.0028577836 0.0037365677 -0.0024137415 0.0016035032 0.0016565832 0.004153063 -0.0021992684 -0.0019007615 -0.0027161431 0.0027810524 -0.0012699933 0.00066239655 -0.0004345842 0.0025731176 -0.00260962 0.00039032652 0.0004313914 -0.003574077 0.0029533333 -0.00113098 0.0028482245 -0.00088061823 0.0022890083 0.0012565654 0.0033529315 -0.0038617114 0.0032641345 0.003676123 0.0006166169 0.0019359468 0.0013872994 0.0017073697 -0.0011160625 0.001010638 0.0010601041 0.0023009893 0.003416387 -0.0032310928 -0.00024366977 -0.0032705055 -0.0005004664 -0.004305549 0.0011889419 -0.0012875993 -0.00019146576 0.003214184 -0.0031574566 0.0003557395 -0.0007125179 -0.001240278 -0.002785109 -0.0025861561 0.0034032646 -0.0037381812 0.0016171298 -0.002035061 -0.0006205386 0.001687034 -0.0034115457 -0.0015581877 -0.0033855285 -0.0034952927 -0.002312709 -0.001058661 -0.0004374676 -0.00069957506 -0.003352153 -0.0020439075 -0.001202546 -0.0023779646 -0.003090564 -0.0012235239 -0.0031058816 -0.0040025595 -0.0036407267 0.0009299723 -0.002849183 -0.0014008415 0.002883844 0.003700519 -0.0018654517 0.00295183 -0.0031100155 0.00071019196 0.0031697191 -0.0017149299 0.003758544 -2.3101606e-05 0.0019420002 0.0028760473 -0.0035288576 -0.0019978164 -0.0032857722 -0.00056780677 -0.0026317004 -0.00019337106 -0.0030145042 -0.00025269573 -8.505989e-06 0.0026780632 -0.0037231308 -0.0015172922 0.0030172055 0.0038686749 -0.0008358739 0.000491247 -0.0024762612 -0.00014707193 -0.0030705673 -0.0031879907 0.0008265634 -0.00017891596 0.0023295204 -0.003451319 0.00067744945 0.0001992397 -0.0025626817 -0.0007549964 0.0029378184 -0.003156907 -0.0004274028 0.00059033855 0.000672329
1936 0.0007860985 0.002674141 0.0028275596 0.0021571924 0.0038734146 -0.0031175115 0.0035901004 0.0010575247 -0.0026364853 -0.0012204745 0.0026524654 0.002307336 -0.004031548 -0.00035853212 -0.00018231686 0.00082964526 0.0032221274 -0.0023751669 0.00313598 -0.0027209746 0.0027935642 0.003746025 -0.0017361329 -0.0043532504 0.0017391153 -0.0032173763 -0.0031277223 -0.00011373052 -0.0030058029 0.0031889072 0.0033089183 0.00047907533 0.002969886 0.003757881 0.0018214459 0.002191935 0.0029233464 0.0016658523 0.0021773654 0.0020685492 -0.003661498 0.004224677 0.0027604622 0.0033039693 -0.0025777977 -0.0014632294 -9.7801585e-06 0.0013594775 -0.0029678016 0.00034995886 0.0024370053 0.003962109 -0.0014638678 0.0010581606 0.001937873 -0.0010043324 0.0012366124 -0.0043732957 0.000515134 0.0023226533 0.0017761409 -0.0034601686 -0.0024478196 0.0014702366 0.001241061 -0.0019294132 0.0027299854 0.0019732753 -0.0032803416 0.0036726499 -0.0026353947 -0.0012729721 0.003335855 -0.00022209804 -0.0020899444 0.000504561 -0.0016892229 -0.0029122508 -0.0028982235 0.0026936424 -0.003829648 0.0011710877 -0.0016388233 0.0030492235 -0.0019749056 -0.0015891915 0.0028801884 -0.0043485537 0.00020126796 -0.00088508346 -0.0024691576 -0.0031907773 0.0030012017 -0.0024286536 0.0024907412 -0.0029561338 -1.1323118e-06 -0.0013462949 -0.0024250017 -0.0012720678 -0.0043129125 -0.0012553505 -0.0008046657 -0.000373805 -0.0017928394 -0.0034947894 0.0024000234 -0.00041096468 0.0029542283 0.0006643584 0.0037459368 -0.0018015312 -0.0033065972 0.0009885898 -0.0039104326 0.002333678 0.003723117 0.00033359457 0.0028864795 0.0034317835 0.0016465976 0.0015385662 0.0037218092 8.647567e-05 -0.0033987025 -0.0033340822 -0.0002926888 -0.00039377785 0.003846569 -0.0037585313 -0.00096078543 0.0033539354 -0.00069775264 -0.004128413 0.0007563195 -0.0025611864 -0.0019569257 -0.0020735387 0.0008159199 0.0028728554 0.0014597334 0.0030050736 0.003987429 0.0023178454 -0.0037448741 0.002576782 -0.0041627353 -0.0021031576 0.0034998977 0.0037210362 -0.0024197698 -0.0036864236 0.0027941775 -0.0010748667 -0.0026839797 0.0032156887 0.002661156 0.0012960759 -0.0011937936 0.0034437291 0.0037361602 0.0029633273 0.003758863 -0.0024665592 0.00048274882 -0.00073907286 0.002357999 0.004537685 0.0024152745 0.0018758443 0.0024515819 0.00202168 0.00016295204 -0.0032429234 -0.001727462 0.0035447252 -0.002671039 0.00049771613 0.0027032362 -0.002845526 0.0030867187 0.0007930003 0.0012636844 0.0034025055 0.0012204897 0.00047495085 -0.004721975 0.0036083835 -0.00462167 0.003135773 0.0026148604 -0.00017918131 -0.0024087203 0.003386082 -0.00031217633 0.0016116843 -0.0010325715 -0.0024949908 -0.00035493125 -0.003505015 -0.00323185 -0.003872317 0.0022551995 -0.00036480516 -0.0005884778 0.002018745 -0.001723625 -0.0036775244 0.00061689276 -0.002218396 0.00023449157 0.0040619345 0.0002938881 0.0031586401 0.0020308483 -0.0014649363 -0.0014937584 0.004153358 0.0001037849 -7.419652e-05 0.0004905237 -0.0017984797 0.0016337553 -0.0014614895 0.0022006638 -0.0022290482 -0.00047238002 0.0015988464 -0.0031612029 -0.0007528955 -0.004019339 0.0007664134 0.0009963139 0.000667122 0.00014429624 0.0009345263 0.0012485629 -0.00059871393 0.0025912414 -0.0012394699 -0.0025623578 -0.0018546543 -0.0040741093 -0.0029643986 0.0005907577 0.0016909654 -0.0018569237 -0.0036951986 -0.002774741 0.0013973411 -0.004440472 0.0027086907 0.0017795282 0.0019381798 -0.004052724 0.0011193585
4195 -0.0024843817 0.0030965323 -0.0014224524 -0.00013471977 0.0028048593 -0.000488378 0.0026493943 -0.0021293329 0.0015238179 -0.0034147464 0.0025690836 -0.0005619003 -0.0023143678 -0.0010046831 -0.00038920465 0.00025751613 -0.00018374008 -0.0033953686 -0.0038310676 -0.0015338509 -0.003087416 -0.0017507205 0.0033055574 -0.0014064534 -0.0038001924 -0.0021169346 0.0015089135 -0.0008092007 -0.0009833017 -0.0019427988 0.0024366933 -0.0030136309 -0.00318014 0.0029007772 -0.0030231713 0.0015626912 0.00095041626 0.002822909 0.0019341039 0.00035103995 0.0002943068 0.0015235154 0.0002476601 -0.001555371 0.0026380902 0.0022844812 0.0037181978 -0.00052301143 -0.00024638133 0.0028544294 -0.0032404729 -3.610811e-06 -0.003060044 0.0021982158 -0.0040250523 0.0010276812 0.004031881 -0.0016289026 -0.0033484567 -0.0027810535 0.0011739864 -0.0016631412 0.0021303038 -0.00020686234 0.0036860525 -0.00038597322 -0.0020621133 -0.001711208 0.00010883813 -0.002148732 0.003042985 -0.0013386308 -0.002666721 -0.00045330205 -0.0018178094 -0.003304634 -0.0022165882 -0.0010100133 0.00029791493 0.00208925 0.0022367868 0.0022600722 0.0029716901 0.0009218739 -0.0025035327 0.0041539962 0.00025337172 0.0010016841 -0.0009375056 0.0021719497 0.002241193 -0.0029449237 -0.00086251 -0.0005410245 0.0015736963 -0.002804343 0.001226072 0.0007425148 -1.4725463e-05 -0.0017236982 -0.003764397 0.0030896012 -0.0031939119 -0.002440813 0.0018647503 -0.0030485047 -0.0011675463 -0.0007425985 -0.00024733896 -0.0034150411 0.0020445986 -0.00013035297 0.0015598143 -4.009818e-05 0.0024428465 -0.0036764152 0.0026756253 -0.0017911834 0.00047745966 -0.0027017812 -0.000804994 -0.0030861904 -0.0010016558 0.003623984 0.0009308144 0.0006715181 -0.0019956625 0.0020777232 -0.002930918 -0.0010539676 -0.002387692 -0.0026907139 0.0009108719 -0.0018237926 0.0008667353 0.0012213556 -0.0021511468 -0.00019126016 -0.00035027284 -0.003715424 -0.004033836 0.00015088054 0.0024961494 0.0006553106 -0.0033249683 0.0013974948 0.00035017653 -0.0038536899 0.0033382447 0.0036045217 -0.0033978664 -0.0008674466 0.0020593393 -0.00075936544 -0.001197936 -0.001144003 0.0029948556 0.0027095154 2.7283764e-05 -0.0018554498 -0.00042827314 -0.0013490252 -0.0035680512 0.0029440764 -0.00013992311 -0.00023270964 0.0029040081 -0.002758697 0.002901921 -0.0028760168 -0.0022508374 0.001728156 -0.0011880009 -0.0012016098 -0.0033392194 -0.0016182024 -0.0017458744 -0.0015542344 0.0046786307 0.0037120278 -0.00034677592 0.00015698595 -0.0019327387 0.0031577535 -0.00127024 0.0024807255 0.002824246 0.001923539 -0.000955479 0.0019657013 0.0034203632 -0.0016571231 0.0010461059 0.002208754 0.0024419783 -0.00052567426 0.0012725949 -0.003254634 -0.004132924 -0.0022546542 -0.0027540796 0.000114166236 -0.0013369077 -0.0007558924 0.002775379 0.0039670556 0.0022311572 0.00018792067 -0.0017507401 0.0011143889 -0.0010415678 -0.003227055 0.0036572532 -0.0027460754 0.0018076262 -0.0015525981 -0.0014378466 0.00025426064 -0.0032652577 0.003560988 -0.0025684962 -0.003388807 0.002422117 0.0014241112 0.0023073347 0.0005105002 -0.0016025868 -0.0019641155 0.0003207205 0.0035500012 -0.002747466 -0.00078990957 0.0009440075 0.0023377992 -0.0030007605 -0.00092125183 -0.0006461988 0.0003629647 0.0023514472 0.0021664158 -0.003998142 0.0030951216 -0.0011860166 -0.0007468224 -0.0037036885 -0.0020370933 0.004181189 0.0012675843 -0.003604856 0.00067208085 -0.0037254265 -0.0029981725 0.00081752794 0.0001830448 -0.00064035674 0.0034340897
1287 0.0022249566 -0.002356401 0.0013254669 0.0016579096 0.0016336067 0.0031578525 -0.0020859877 -0.0013082963 1.5035701e-05 0.0028231505 -0.00014990066 0.0030236286 -0.0019680066 -0.0043449732 -0.0026886167 -0.0011318448 0.004129493 -0.0017769577 -0.0025273142 0.0041862414 -0.0026040415 0.0008689654 0.0020442763 -0.0035686998 -0.0007411485 -0.00072845176 0.0022532807 -0.001599555 -0.0029292265 0.0036284386 -0.0017504202 0.0029562914 -0.0035336844 0.0027440134 -0.001568069 -0.0025145968 0.00015105106 -0.0017115742 -0.00051854696 -0.00079946185 -0.0031692395 -0.00084448967 -0.0017263703 0.0026361435 0.003182602 -0.0003849401 -0.0017106327 0.0018742715 -0.0033058242 0.00086237164 0.0016142284 -0.00057920115 -0.002123645 -0.0029383416 -0.0036989201 0.0025594356 0.001929521 -0.00079566904 0.003966873 -0.003062894 0.00020663951 8.497957e-05 -0.003502951 -0.0033077768 0.0033831235 -0.0016093417 -0.0028222606 0.003505185 -0.0026568333 -0.0013914217 0.0010797181 -0.0012783995 -0.0035548587 -0.002171269 -0.0034662627 0.00037585985 -0.0019943602 -0.00029291995 0.0011664138 -0.00033601598 0.003080198 0.0023949232 0.000324658 0.00044118924 0.00013289755 0.0031614993 0.003951241 -0.0014822845 -0.0009153064 -0.0012041505 0.00030360726 -0.0026716783 -0.00056833937 -0.003864678 0.0009549594 0.0013226134 0.00095821463 -0.0015511052 0.0023101172 -0.0029614842 0.0032277105 0.00030513556 0.0010099115 0.0020647713 0.00030267905 0.0012493257 0.00075663516 -0.0036958272 -0.00085355603 -0.0016816384 -0.0032944027 0.00092742447 0.0019470986 -0.00045129182 0.0026892342 -0.00041708443 0.00024263376 0.0024452168 -0.0034373016 -0.0027106453 0.0029515347 -0.0030247527 0.0035323084 0.002006343 -0.0032142573 0.0033151633 0.0027558676 -0.002682827 -0.0031445716 -0.003608091 0.001639908 0.0023113342 -0.00085578 6.8242865e-05 -0.0033662003 -0.0022379193 0.0021109323 -0.0031271814 -0.0030062944 0.0004668377 -0.0035350234 -0.0029161042 0.0024620045 0.0035802869 -0.0040662414 0.003191245 0.0034172398 0.0016984788 -0.0013554625 0.004214581 -0.0032975334 -0.0020570143 0.00051319983 -0.002694327 -0.004813051 0.0015482322 0.0037076527 -0.0019692741 -0.002367062 0.0014916816 0.00052042655 -0.0031849544 0.0028214776 -0.0013436739 0.0014939498 0.0011765142 0.0036397034 0.00408039 0.0032582788 -0.0031768552 0.00036089358 -0.0005792048 0.0005082239 0.0036266893 0.0011525577 -0.0035557053 0.0032534194 -0.00034644286 0.0010022271 0.001915099 -0.0025986007 9.4984396e-05 0.00081373804 0.0027588597 0.0022031448 -0.0006202035 -0.0039958693 -0.0017483891 0.0029468234 -0.003840633 0.004468283 -0.00018000352 0.00020980259 0.003476473 0.0038446095 0.0029251056 0.003769709 -0.0045721545 0.0024898502 -0.0039526997 -0.003586772 -0.0036043492 0.0010999964 0.0022719672 -0.0026113468 -0.0009334617 -0.0015900448 -0.0023547746 -0.0010773358 0.0020612334 0.001532847 -0.000958804 -0.00066304294 -0.00037294455 -0.0010152848 0.0015483635 0.0043713492 0.0036628451 -0.0035495998 -0.0023847066 -0.0035119103 -0.0022318505 0.0015607412 -0.0026505154 0.0010776023 0.003063461 0.0011072026 0.00045769569 0.0031824226 0.0027268762 -0.0010221658 -0.0023439615 -0.00028958975 0.0026378317 0.0025221764 -0.00080796576 0.0042637927 0.0008108047 0.0022084985 -0.0022767133 0.0012686485 0.00030711564 -0.003934848 0.0023053705 -0.0036841044 -0.0023373053 0.0015108323 0.0037124644 -0.0012250757 0.0023944566 0.0011950831 0.002048199 -0.0030263953 0.0015414477 -0.0041714585 -0.0017270964
2534 0.0018129705 -0.0038342893 0.0026194404 -0.00038295626 0.0009651429 -0.0030481184 -0.0015871425 -0.0018247871 0.002956287 0.0026305732 -0.0036890132 -0.002589347 0.0011992244 -0.0044483393 0.0026361754 0.0031097173 -0.0031210561 0.0039089276 0.0022491438 0.0005559969 0.0011102695 -0.0021158585 0.0021456615 0.002148617 0.000698351 -0.0032272867 0.0021705187 -0.00094367634 -0.0014137926 0.0021799107 0.0009746956 0.0018861959 -0.002695266 0.0019751566 -0.0017301968 0.00060030504 0.0034262487 0.000538386 0.003312349 -0.0021346293 0.00037148895 0.0038287598 -0.0019427994 0.0017725019 -0.0025304202 0.003338 0.0016228977 0.0017509634 0.0021478203 0.0021195642 -0.0012151117 -0.0021355725 -0.0014220552 0.00096552615 -0.0017558236 -0.003723439 -0.0017700782 0.0023279763 0.0039133723 0.002985381 -0.0016255564 0.0007932699 -0.0037722753 0.0028708202 0.0008777427 0.002695088 -0.0015828839 -0.00040083527 0.0008747877 0.0012032319 -0.0019807252 -0.0029268814 0.00011491727 -0.0044716373 0.002434816 0.0021246183 -0.0016620895 -0.0026204463 -0.0031022765 0.00020707228 0.0023074755 -0.0005430493 -0.0024799893 0.0046763704 -0.0037282247 0.0029469156 0.0030223154 -0.0007926821 -0.0038748004 0.0023644087 -0.0028537721 -0.002162355 0.0042144638 -0.004123414 -0.0020738482 -0.0008291215 0.000379207 -1.4109114e-05 -0.002292975 -0.0015254425 0.0022278184 0.0039382437 0.004205488 0.0010584855 0.0018141263 0.0006754048 0.0010299401 0.0020637955 0.0014708248 -0.0005745156 -0.00068623235 -0.0030795415 0.0033178881 -0.0017390355 0.00067418936 -0.00045811152 -0.00088981615 -0.0017792501 0.00097594154 -0.002225054 -0.002777631 -0.001766155 0.0020932462 0.0019268437 -0.00080623745 0.0027531958 -0.0024975196 -0.0019445136 -0.002618048 -0.0023855024 0.003036117 -0.003946265 -0.0035760973 -0.0047116177 0.0035493106 -0.0013768397 0.00065618305 -0.001853732 -1.407005e-05 0.00021489765 -0.001191918 -0.003248694 -0.0017477624 0.0016993267 -0.005472751 0.000323961 -0.0012716368 0.0029949362 0.00044117554 0.0032472643 -0.0031323165 -0.003782548 0.0017466305 0.000853479 -0.0033166765 -0.0004872471 0.0042613572 -0.0038620585 -0.0022918375 0.00045158094 0.0003728965 0.004067814 -0.00052095525 -0.0029589073 -0.0029854144 -0.0039643473 -0.003173569 -0.0014796485 -0.0018403685 -0.00018611713 -0.00040752406 -0.002219478 0.0010624494 0.0016959138 0.0024262758 -0.0019954327 0.0011031402 0.0029520998 -0.00044037786 -0.0029538528 -0.0015104034 -0.0023026092 0.0029457388 0.0038925644 0.0041352464 -0.0031026197 0.0006666154 0.0016648123 0.0012501313 -0.00344417 0.0008852885 -0.002978736 -0.002630135 0.0006385381 0.0041524842 0.0019945623 -0.0024583496 0.00015378873 -0.0022099605 0.003570461 -0.004346505 0.0036445535 -0.0022947711 -0.0034300971 0.00042538196 -0.00025481186 -0.0046132645 -0.0012494567 -0.00085455953 -0.002203613 0.002326092 0.0018341439 0.0042365957 0.0038418085 -0.0022280551 0.001797893 0.003015143 0.0030528563 0.0011709899 -0.0017595728 0.0017567876 0.00065268093 0.00018998292 -0.0029075535 0.0012900134 0.0014364369 -0.0037990634 0.0035233835 0.000647865 0.00039301094 -0.0020083978 0.00041391203 0.0026438106 0.0014821611 -0.0027854482 0.004243084 0.00018918214 -0.0035575924 0.0037877185 0.0018612274 0.00067910686 0.0033661823 -0.0033476218 -0.0019779075 -0.0009815377 -0.0014512863 -8.3486804e-05 -0.00014266017 -0.0037818742 0.00031143668 -0.00010539086 0.000542406 0.001036698 -1.2357321e-05 0.0009011674 -0.0008969162
8962 0.0029344908 -0.0012624016 0.0015907325 -0.0004772718 0.0034337046 0.0010277182 0.001154692 0.0027900783 -0.0036203184 0.0042942516 0.0004927607 -0.0010484016 -0.0017467448 -0.0048635793 -0.00073278224 0.0018491388 0.0031545917 0.0039208834 -0.004409334 0.0050938083 -0.0030581716 0.0015661734 0.0027968984 -0.0019132517 -0.004135152 -0.0029249636 0.0006002455 2.4796518e-05 -0.004267631 0.0008416419 0.0010095492 0.0018330642 0.0014326038 0.0011780342 -0.004225394 0.0030822195 0.0027097925 -0.004277559 -0.00045785346 -0.00044295163 -0.0012090495 0.00046124883 -0.0029305657 -0.0006254666 0.0031755862 -0.00034336818 0.0005755762 0.0004926763 -0.0012403895 -0.0026691752 0.0037303432 -0.0035330842 -0.0015731497 -0.00010945754 -0.0037062583 0.00029719714 0.0038270992 -0.0016422606 0.003314418 0.00068615546 -0.0023820717 -0.00026978937 -0.0007565345 0.0028382265 0.0036382275 0.0022159377 -0.0018535979 -0.0020284266 0.0021108994 0.00066558534 0.002726891 0.0002277799 0.002401249 -0.0044737514 0.003976844 -0.0033328384 -0.0008685563 0.0020511947 -0.003417251 0.0026442008 -0.0032777183 -0.00314911 0.0017968806 0.0018079203 -0.0014398455 0.003948779 -0.0020622183 -0.0009806921 0.002968852 0.00064228394 -0.0024313952 0.0012357986 -0.0016544815 -0.00057932426 0.002179086 0.0041429168 0.0019455549 -0.002629367 0.003750035 -0.0025567042 0.0019192287 -0.002951643 -0.0028726407 0.00024115657 -0.0029722021 -0.00097159203 9.245362e-05 0.000101371596 -0.003282947 -0.00350525 -0.0023491187 -0.00077719835 0.0021368975 0.0005768236 0.0035360453 -0.0015410673 0.0037061404 0.0026290496 0.0029630044 7.171504e-05 3.571154e-05 -4.1944553e-05 -0.0035211178 0.003286205 -0.0011203064 0.0029900495 0.0012559542 0.00097142195 -0.00011649744 -0.0040162923 0.0007192279 0.0008865298 -0.0039199353 -0.0022432439 -0.0010816673 -0.002394807 0.0019523574 0.0014497295 0.0026814775 -0.0023561206 -0.0025846078 0.0014933082 0.0035662756 0.00291881 2.9423749e-05 -0.0028323135 0.0027174237 -0.0029774273 -0.0023112067 0.004054727 -0.0013770512 -0.0045062643 -0.0016355731 0.0027615596 -0.002524753 0.002506941 0.0008201337 0.001534512 -0.00059794175 -0.0036824094 -0.0010095597 0.00374861 0.0009501366 -0.0024960719 0.0028506252 0.002877686 0.0028402605 0.0010199945 -0.0029385034 -0.0012714381 0.0018040835 -0.002800508 0.0040923543 -0.0035723196 -0.004340745 -0.0021816788 0.0014311025 -0.0029423346 0.0045738798 -0.0038257127 0.0010788755 0.0016540501 0.00039426325 0.0038134234 0.0029352722 0.00034814648 0.0007893763 0.002081246 0.00035784618 0.0034538445 0.00045472902 -0.0034372788 -0.0007145143 -0.0010105887 -0.0026461838 -0.0012168484 0.0035234622 -0.0029335304 0.001368429 0.0012584004 -0.0011684343 0.00023198948 0.0026255471 -0.0033798325 0.0012926166 0.0036809675 -0.00258108 -0.0039612423 -0.004497335 -0.0032864246 0.001606285 0.0024554753 0.003991927 0.00032997518 0.0007818676 0.0012287627 -0.0029094236 -0.0027936634 0.0008469666 -0.0030544112 -0.0011398974 -0.0014997172 0.0025435074 -0.0017192472 0.00457013 -0.00038336086 -0.0022225014 -0.0013865313 4.6526773e-05 -0.0017329996 0.0021911098 0.0037401286 0.0019231722 -0.0032228718 -0.0029664545 0.0011751389 9.000567e-05 -0.00238006 0.0033722806 0.0023640555 -0.0024441055 0.0012882707 0.0017067651 0.0014405649 0.0030054522 -0.00029115894 -0.0018743299 -0.00025105508 -0.0037994005 0.0033288621 -0.0045951395 0.00018101343 -0.0020451143 0.00048480034 0.0004216785 -0.003252338
7687 -0.002033148 -0.00027756533 0.0018231221 0.0027096726 0.00014040647 -0.00033508945 -0.0024391524 0.0012914769 -0.0033902037 0.001658851 -0.0011604914 -0.0031352197 0.0026063055 -0.0011455357 -0.0036880278 -0.0031267768 0.00064794224 -0.002953931 0.0007853897 0.0024304003 0.0015714968 -0.0020919258 0.0029425356 -0.004164038 0.0021418193 -3.7752005e-05 -0.0005106485 0.0017279421 -0.001413546 -0.0019645218 -0.00078126707 -0.002407581 -0.0003443236 -0.002190248 0.0015274566 -0.0031103059 -0.0009675946 -0.0045087812 -0.0035286138 -0.0007248991 -0.0038597116 -0.0016317233 0.00051648647 -0.0010707321 0.002243334 0.0031304653 -0.0035702041 0.002188312 -0.0029608777 0.0028909468 0.0029842383 0.0035775695 -0.0035797092 0.0016007279 -0.0036020204 -0.00078068447 -0.0015489624 -0.0041126343 0.0020841337 0.002043338 -0.0016471408 -0.0026601313 0.0010571674 -0.0012663119 -0.0028184261 -0.001879512 -0.00048347728 0.003853542 -0.0027363189 0.002589276 0.0029211673 -0.0019003969 -0.0010922977 -0.0016828765 0.0013049813 -0.00030889388 -0.0012475927 -0.0037866712 0.0026577495 -0.0031210333 -0.0037836968 0.00022201204 0.0017802943 0.00071136194 -0.00010106311 0.0016204432 0.0011554807 0.0021629496 -0.0016982576 -0.002937794 -0.0029298326 0.0030444185 0.00096857327 -0.002849212 0.0032940474 0.004129458 0.0025708014 -0.0031506026 -0.0019749925 -0.0011130631 -0.0033115936 0.0019544945 0.0023592873 -0.0018610398 0.0030046382 -0.002807715 0.0026241487 -0.0018090854 0.0011972717 -0.0019981922 0.0017400982 0.0026401877 -0.00053885847 -0.0015688948 -0.0035807907 0.0014200562 0.002039763 0.002797084 -0.0018754059 -0.0038084958 0.0028209942 -0.0023380201 0.0019440266 0.0030247394 -0.0016071586 0.0006697223 -0.0010784516 -0.002686373 -0.0019529229 -0.00013819564 -0.0028318104 -0.0010023412 -0.0010260161 0.0021033266 0.0004383477 0.002024269 0.001757102 -0.0009448743 -0.0013242939 0.0038968534 0.00260975 -0.003744351 0.0027721608 0.0037369002 0.0022811003 -0.0031681024 -0.0011008105 0.00026943846 0.00161128 -0.00016733927 -0.002171678 0.001968212 0.002477024 0.00016281994 -0.0032979518 -0.0012946912 -0.0014392656 0.0016560083 -0.0005921813 -0.0009975745 -0.0032378715 -0.00041650236 0.0027895619 0.0023828635 0.0017437588 -0.0011574934 0.00365886 0.0008978664 0.00091696536 0.0025080063 -0.0027766062 0.0023918601 0.0040370906 0.0016168215 0.00052101834 0.0015668574 -0.0014636966 -0.0031412044 0.001465972 0.00036234685 -0.0028494638 0.0010362017 0.0023821131 -0.0027219662 0.0015985612 0.0032168992 -0.004141704 0.0011193063 -0.0039187213 -0.003261231 0.0035248355 -0.0030675915 0.00018567414 -0.003441255 -0.0029628673 -0.003189431 0.00047813202 3.223366e-05 -0.0035694463 -0.0034591616 -0.0018120009 -0.0008410304 -0.002152012 -0.0022260174 0.0012687842 0.0013301296 0.0017515167 0.00096706476 -0.0009890713 0.0012402101 0.0035899093 0.0010478679 0.0015760212 0.0010639814 -0.003354821 0.0021173684 0.0026428234 0.0005594627 0.002982146 -0.0020547935 0.0013830763 -0.0029946156 -0.003393917 0.00048731104 0.002396056 0.002049233 -0.003535687 0.0016892864 0.0006215795 0.0019047927 -0.0007236076 0.002347912 0.003057814 -0.0035249968 -0.004359468 0.003614339 -4.9868548e-05 -0.0038613323 -0.0014123914 0.00046627357 0.0027197448 -0.0004497646 -0.00060347124 -0.0025520108 -0.0032434384 0.0007901745 0.00027913883 -0.0029380557 -3.60875e-05 -0.0039261896 -0.0018639141 0.0021409201 -0.00017090183 0.0025459877 0.0015535302 -0.00045549776
1796 0.0016654704 0.002075288 0.0035975343 0.004181046 0.0025710932 0.0017854632 0.0033269618 -0.0009968613 -0.0025977371 0.0038060416 0.00068779517 -0.0020358453 -0.00044552708 -0.0028759658 0.0036269072 0.0017571339 0.002098763 0.002744193 0.0026427696 -0.0009118727 -0.0022355162 -0.0013830013 -0.0016266541 -0.0042071897 -0.00089785026 -0.0030108083 0.003918962 -0.0011044001 -0.0027947044 -0.0033773473 -0.0013226297 -0.0037406099 0.00015144031 0.0020881512 -0.0014094277 0.0035179313 -0.00013896725 -0.0035869726 -0.0010114699 -0.0015565853 -0.0033748224 -0.0033223 -0.0020792847 -0.0009732043 0.002801141 -0.003068204 -0.0017291004 0.00038825013 -0.00051171315 0.0016072057 -0.0006680528 0.0019133862 0.0028012167 -0.002870973 0.0010350643 0.0021686414 0.00021223561 0.002020556 -0.0019767836 -0.0015681295 -0.0031270066 0.0040540053 -0.004010599 -0.00092638284 0.00036829963 -0.0020336933 0.003967304 -0.002219909 -0.003278333 0.003443336 -0.002842003 0.0038372069 -0.001992432 0.0016195541 -0.0001250864 -0.001699047 -0.0030899667 -0.0026552195 0.0027880853 0.0030615644 -0.000238656 0.0021686342 0.0019688332 0.0021534741 0.0008772996 -0.0033241273 0.0040671523 -0.0038668695 -0.0014067277 0.00050352694 0.0022112231 -0.0037339278 0.0007866088 0.0020326641 -0.002864464 0.004375764 -0.0025256053 0.003298066 -0.002476204 0.0023127473 0.0030319842 -0.003487968 0.00016025906 -0.0027061184 0.0033017125 0.0039656055 -0.0022376683 0.0004042676 -0.00048463105 -0.0036458613 0.0005943594 -0.0042611603 0.0010777159 -0.0026544016 0.001981047 0.003019746 -0.0007214705 -0.001316506 -0.0038477501 0.0019374124 0.0012540522 0.0029289175 0.0015267899 -0.0012570197 0.0012569616 0.0033991204 0.003867335 0.0028850457 -0.0032056137 -0.0031075533 0.002931103 -0.0030825748 0.0012675358 0.002704533 -0.0013183097 0.002359051 -0.002931018 0.0029307143 0.0027070313 0.0013824394 -0.0033535778 0.0034254675 0.0038724958 -0.00013810887 0.0005031357 0.0024928323 -0.0009800561 0.0020217022 -0.0012161424 -3.2608987e-05 -0.00075423846 -0.0020914357 -0.00046357836 -0.00276601 0.00056210853 0.0039671985 0.0022952901 0.002523948 -0.0025472254 0.0018369553 -0.0023896017 -0.0017892084 0.004077614 0.0024115935 -0.0018865713 -0.002440228 0.003009143 0.0016590289 0.0029359262 -0.0026757447 -0.0005204698 -0.00056123 3.7503934e-05 0.001007563 -0.003292997 0.0015857858 -0.0015661739 0.0032346458 0.00036431637 0.0035509202 -0.00049193035 0.0022694555 -0.0027207981 -0.0034940657 0.00032576994 -0.00072689686 0.0032585415 0.0015428817 -0.002658346 0.0026791901 0.00082487264 -0.0038033994 0.002845302 -0.0010550084 -0.0035502322 0.0030741503 0.00310244 0.002782467 -0.00021213696 0.0027258352 0.0015512279 -0.002848628 0.003845636 -0.0018088729 -0.003920238 0.003568134 -0.0026746478 0.0027137282 -0.003636617 0.0037769445 -0.0022934438 0.0018016937 0.004488288 0.0021001226 -0.00062142947 -0.0019651388 -0.003299776 0.0022254284 0.002386088 -0.0016812063 0.0023905889 0.0027357296 -0.0033826 0.0005354546 -0.0022933425 -0.002019956 0.0002211933 -0.002821257 -0.0018669411 -0.0027227858 -0.0031526235 -0.0026578414 0.0040333136 0.0030381426 -0.0004597424 -0.00031723967 0.002834642 0.0004556307 -0.0032933333 -0.0027914057 -2.2548173e-05 0.0033609131 0.0010839158 0.004114336 0.0022998303 0.00027966066 0.0038008727 0.0036270781 0.002835649 0.0033847552 -0.004449887 0.001818942 -0.003666188 -0.0032528779 -0.0041970615 0.0012130451
926 -0.00035530547 -0.0030316869 0.0024905824 0.003994112 0.002658925 0.0029463577 -0.00081939425 -0.0030918014 0.0010185284 -0.00070017524 -0.0026465757 0.001312953 -0.0014239071 -0.0032712556 0.0011630917 0.003364722 0.003115375 0.00041807795 0.0025433071 0.0025156194 0.002992224 -0.0002210826 0.000491558 0.0015887918 -0.0048699505 0.0025171342 0.0007002369 0.0026703465 -0.001134233 -0.001405399 -0.0020911635 -0.0011010442 -0.0013342841 -0.0020710195 -2.7761342e-05 0.0038979985 0.0029327716 -0.0041131116 -0.0026606037 -0.0016981786 0.00071810174 -0.0029231422 0.0017349718 0.00067418977 0.00013573816 0.00348689 0.0034257136 9.960201e-06 0.002117555 -0.003348637 -0.0033723658 -0.0008068293 0.0031162712 0.0016493711 0.0015989242 -0.002979671 0.0023120125 -0.0007085983 -0.00024167885 -0.0008164125 0.0019201955 -0.003090092 0.0015895396 0.002509322 -0.00014219955 -0.0019206391 -0.0024876222 -0.0019230981 -0.0022197263 0.0009951696 -0.0013195127 -0.00040371137 -0.0041168174 -0.0022792225 -0.0002527087 -0.003299174 0.0010827773 0.0035176985 0.001869411 0.0015611147 -0.0024716044 -0.0008753954 0.0016592344 0.0016292363 0.0031889684 0.00030235192 0.0033234654 0.0011991188 0.0007967948 0.002741858 -0.001745385 -0.0016758697 0.0030564046 0.0026689232 0.0021731458 -0.0005529122 0.0021662407 0.00042718698 -1.45317445e-05 0.003080459 0.0008954171 0.0016243432 0.00014342605 -0.0028604795 -0.001086833 0.0012224142 -0.002010548 0.0029063143 0.0034637374 -0.0043896628 -0.0016442732 -0.0028955438 -0.00015148384 -0.000120711775 -0.0011554203 -0.0008884617 0.0018888705 0.004006803 -0.0020827139 -0.0032336006 0.001640153 -0.0031388516 0.0029215794 0.0008188534 -0.0032524616 -0.0030507888 -0.0031633012 0.00085548323 0.0013763019 0.0008410176 0.00025766448 0.00014093587 0.0010999185 -0.0012288754 -0.003298288 -0.00058558525 0.0017872954 -0.00039514242 2.9910574e-05 -0.0008053351 0.00264449 -0.0014477399 0.0045895767 -0.00085298886 -0.005597538 -0.0026225478 -0.0021374945 0.00033339713 0.0026263767 0.0014950624 0.0031545898 -0.00035268944 0.0018556094 0.00048233 -0.0020868222 0.003047604 0.0015329637 0.0032349268 -0.0042070346 -0.0034389987 0.00015550893 -0.0005366389 -0.0006727371 -0.00037180705 -0.0019620785 -0.0031309961 0.0033858623 -0.00038167275 -0.0006679325 -0.0005608172 -0.0006305393 -0.003896102 -0.00048611566 -0.00033416186 0.002336318 -0.0032304106 -0.0026822495 -0.00065434456 0.0022439251 -0.0023980958 -0.0024105737 -0.0027891023 0.0024933382 -0.0033339243 -0.00048811687 0.0002845369 -0.0003530146 -0.0042594173 0.00267883 -0.0010366028 0.0009776873 -0.0036496636 -0.002213973 0.0011487565 0.0017605887 0.00064246694 0.002675264 -0.0035810997 -0.0010371311 -0.0014690326 -0.0013312843 0.0015679669 0.0008754667 -0.0036828597 0.0010981361 0.0026700886 -0.003403706 0.00040861766 -0.0024606748 0.0036663723 0.0016378768 0.0012377048 0.00068786147 -0.0028508678 0.0037069318 -0.00080281915 0.0036880758 0.0022605078 -0.004091532 -6.5017034e-06 0.0011743933 -0.0008798554 0.003997922 -0.0022955923 -0.002213908 0.00094277284 -0.0015960004 -0.0027296373 0.0003590888 0.0023880359 -0.0027924264 -0.001538272 -0.0025970303 0.00029706428 -0.0023664762 0.004365837 0.00073189 0.0005693329 -0.0010156969 0.0028591137 -0.0009273077 -0.002918373 -0.003178802 0.00055278203 0.0028530313 0.0014798668 -0.001529314 -0.002559838 -0.0043940586 0.0010780491 -0.0048836223 0.0019522043 -0.00018024372 -0.0010163075 -0.005318717 0.002283949
993 -0.00018187737 -0.0042370083 -0.0028905524 0.0038243937 0.0012701161 -0.0033434515 0.00016738776 0.0018970214 -0.0038550203 -0.002511941 -0.00033701153 -0.0038427606 7.569019e-05 0.00014880054 0.0033781955 0.00079447654 0.0007788784 0.0021312535 -0.002178888 0.003683848 0.00030706514 -0.00014522095 -0.0040253415 -0.00031218032 0.0021032644 0.0009603595 -0.0030966916 -0.0011858534 -0.002694933 0.002142943 -0.0025116948 0.002094628 -0.0022228868 -0.002705951 -0.003037311 0.0019528745 -0.002981636 -0.002909945 -0.0025470047 -0.0020798068 -0.0020279053 0.0010103259 0.0021586916 -0.00075821 -0.001459644 0.0005837287 0.0022332235 -0.0022757128 -0.0018718933 0.0022575993 0.00249204 -0.0028432917 0.0030038916 -0.0036852206 -0.003274029 -0.002504121 0.000992222 -0.00044461607 0.0014354822 0.0030343144 0.001869412 -0.0010306049 -0.0027280594 -0.003014104 0.00017762446 0.0037780884 -0.0027870943 0.0018965843 0.0016526602 -0.0018139197 -0.0024787157 -0.0021512066 -0.002214706 -0.0033353844 0.0024416219 -0.0030203306 -0.0011669529 0.0015181061 0.00018641856 -0.002491255 -0.002061344 0.0012110661 0.0013878524 -0.0001438898 -0.00045254306 0.001407171 0.0008217753 -0.0016521941 0.0018905207 -0.0030233788 0.002678803 -0.0039876676 -0.0006710048 0.0021404086 -0.00095486926 0.0032042395 0.0015354938 -0.003383405 -0.0001012 -0.001990598 -0.003794877 -0.0002790198 0.002667693 0.0037792816 -0.0018405346 -0.0008349848 -0.002293763 0.0006205542 0.0014124942 -0.004353438 0.0011447615 -0.0038166596 0.00029623383 0.002148573 -0.0023478363 0.00015578397 -0.00053274725 -0.0033431365 -0.0010930673 0.0017693386 -0.003368912 -0.002612632 0.00011875983 0.0028866886 0.00042277054 0.003880504 -0.00268493 0.0034509103 -0.0016347199 -0.0025776247 -0.0029601362 0.0007528999 -0.0011257158 0.002668501 -0.00031312316 0.00080093107 0.0026202009 -0.0030927607 -0.0002374668 -0.001856589 -0.0035512282 0.0011697285 0.0012921614 -0.00054519466 -0.0017600051 -0.002689712 -0.0015485614 0.00037297164 0.0034296284 0.0031367105 -0.0016188901 0.0009411636 -0.0012661761 -0.00156753 -0.0021537452 -0.0021032214 0.0016848206 -0.0030509294 -0.0034540344 -0.0016788262 0.0031596217 0.0008968731 0.0022537822 0.0032018423 -0.002379126 -0.0017995323 0.0029341616 0.002526805 0.002157723 0.0037437133 0.0033222556 -0.0011998775 0.0004908637 0.0022577376 0.0029048487 0.0037721398 -0.003708633 -0.0020725594 0.0024304248 0.00036894873 3.4425728e-05 0.0030206828 0.002663163 -0.0027987177 -0.000697073 -0.0032820003 0.002159143 0.00087453966 -0.0012896621 0.0005919516 0.003451154 0.003194649 0.0029325166 0.00096933026 0.00083283696 0.0027899335 0.00066474575 -0.00035115523 -0.0041246465 0.00076169794 -0.0038136006 0.0024449362 -0.0021200855 -0.0011084024 0.0003008088 -0.00075543334 -0.004159932 0.0009836745 -0.0030224903 -0.0033979772 0.001659405 8.99522e-06 0.0030596433 -0.002207987 0.0005035356 -0.00033272785 0.0027530752 -0.0034482323 0.0018836557 -0.0033813966 -0.0030405056 0.00036449972 -0.00079288107 -0.00164122 -0.001848741 0.0012008236 -0.003610686 0.0005380073 0.001400272 1.8533758e-05 -0.0005439743 0.002849141 -0.0036981548 -0.003723556 0.0014886586 0.003925452 -0.0028261745 -0.0034221278 -7.776048e-05 -0.003664703 0.0004346534 0.003779989 -0.002489014 -0.0025018274 0.0032912327 -0.0002637742 -0.0012391272 -0.0011244885 -0.0037161873 -0.0021145658 -0.002160432 0.00051482196 -0.00017360614 0.0025176413 0.0019590093 -0.00070980226
692 -0.0042976765 0.00048687813 -0.0022743004 0.004310565 0.0022256288 -0.0005260943 0.0032829205 -0.0017832867 -0.0018178946 0.00022923846 0.0034509366 0.0022661616 0.0005183981 0.00056489446 -0.0011741363 0.0041629635 -0.0023852547 -0.00087550713 -0.0027640678 0.0046166293 -0.0009605066 -0.0008580444 0.0024675152 -0.0045012673 -0.001952078 0.0014554608 -0.002405921 0.0035869395 7.842467e-05 -0.002292242 0.0020520452 0.0031935251 8.643693e-05 0.0025724985 -0.0028415537 -0.00074030604 0.0047322055 0.0012691758 0.00094165554 -0.0019760388 0.0009585527 0.001620485 0.0027020026 -0.0005167614 0.0043938877 -0.0024712551 -0.0029014926 -0.0009333689 0.00151471 -0.00045721375 0.0024215444 -0.0029088408 -0.003885864 0.0032478098 0.001996444 -0.0018984149 -0.0010711148 -0.0022644964 0.00020814121 0.004089951 0.00032339105 -0.0003937379 -0.0016503817 -0.0005232631 -0.0029969385 0.0026035274 -0.0032022453 -0.0005650789 -0.0030221266 0.003264004 0.0027193537 -0.00021841445 0.0010870796 -0.0017551678 0.0040355353 -0.0013898177 0.0018009298 -0.0017752835 0.0039022327 0.0045362166 0.0021095166 -0.00043920038 -6.846319e-05 -0.0023853255 0.0033881362 -0.002693511 -0.0021509621 0.0012992257 -0.0011804297 0.0030812041 -0.0028525526 0.0035572548 0.0011783285 -0.004033332 0.0022384888 -0.0009884477 0.0015827039 0.001906283 -0.0034572151 0.0022101987 0.0011658536 0.0026477901 -0.0025091632 -0.0020313098 -0.0032724543 0.0023693957 -0.0014031344 0.002020598 0.002393715 0.0025573727 0.0012812559 -0.00094631483 0.0007365914 0.0016808042 -0.0037634715 -0.0023650306 4.208778e-05 0.00206738 -0.00026824872 -0.0037711996 -0.00023204973 0.0022955472 0.0028405527 0.00094136334 -0.0019017212 -0.0014786302 -0.0003363459 -0.0024588713 -0.0030229706 -0.00033636132 0.0008661912 0.0018015079 0.00139123 0.0027671708 -0.0027953829 0.003269047 -0.001038373 0.00084311666 -0.0007635623 -0.0014838927 -0.0007038122 -0.0032804853 0.0040771984 0.0023516768 -0.0023707433 0.000615305 0.0026920475 -0.00238055 0.002064143 0.00082399236 0.00080333714 -0.0014567841 -0.0042642457 0.002740569 -0.0016081401 -0.002867916 0.00071756635 -0.002528468 0.0022794902 -0.0024735266 -0.00023082242 9.2822505e-05 -0.0014762554 -0.0014870758 0.0029605243 0.00074482406 -0.0037478153 0.00070748565 -0.003259913 -0.0009499486 0.001755439 0.0012541831 -0.00213964 0.00077455456 0.0014045332 -0.0029864435 -0.0020361887 -0.00096540916 -0.002723387 0.0008338021 0.0024337466 0.0011564273 0.0011849977 -0.00025441512 0.00023488347 -0.0023085664 -0.0010878359 0.002292456 0.00051167153 2.8505685e-05 0.0038003565 0.0010053476 -0.0021028821 0.0024665461 0.003928539 -0.00413994 0.0031120176 -0.0036372056 -0.0006246741 0.0015418935 -0.0029477025 -0.0032188494 -0.0026272414 -0.004476843 -0.002844632 0.0036807857 0.00023713463 -0.0043697413 0.0026753016 0.0029139814 0.0032014498 0.00417473 -0.0024843796 -9.998985e-05 0.0012197064 0.00083747716 0.0026858486 -0.0024390365 0.0012393148 0.004091849 -0.0034351526 0.0033062857 0.0015100464 -0.0019082915 -0.00021698723 -0.0038723624 -0.0030087715 0.0022617541 -0.0016095627 0.004125859 -0.0036918973 -0.0025960212 0.0025456485 0.0027637472 0.0011174532 0.0036203992 0.002886052 -0.0025263254 0.0036552201 -0.0025715057 -0.00173224 -0.002126816 0.002207392 -0.0014902287 0.00096369704 -0.00049353513 6.922429e-06 -0.002317306 -0.0026585911 -0.0018843117 -0.0007098663 0.001225882 -0.0019997873 0.00012596339 -0.003380101 0.003857239
563 -0.0005376199 -0.00300241 -0.000592535 0.0036268542 4.8870384e-05 -0.0020883835 -0.0026906363 -0.002618271 -0.0014632439 0.0032455837 -0.00277471 0.00056830235 -0.00014678655 0.0009106408 -0.0031056595 0.003478635 -0.0008107091 0.0023301116 -0.004140925 0.0027303218 -0.003000183 -0.0012251765 -0.0006386885 -0.0019157518 -0.00075919746 0.0001883955 0.0018907973 -0.000746162 -0.0018147358 -0.002575881 0.0033908193 0.0018498175 0.0033536374 0.0020980872 -0.001922394 0.0036365571 -0.0021631678 0.0005946775 -0.0011286755 -0.00027076245 0.0009659812 -0.0006081435 -0.0021098077 -0.0010105525 0.00087678235 0.0024687047 -0.0021939278 0.0015891336 -0.0012772761 -0.0029114918 -0.00207729 0.0008934138 0.0031300713 0.0032609447 0.003240292 0.0024941964 -0.0007996557 -0.001476995 0.0035568462 0.0028822878 0.0023107268 0.0029443149 0.00035639657 0.0011235814 -0.002841752 0.0028774652 0.003918191 -0.002412583 0.00037584064 0.003232186 0.0017189418 0.0027000431 0.0026505997 -0.0012631156 0.0036001105 0.0023404649 -0.00078815385 -0.00017197395 0.003937371 0.0027858864 -0.0027990274 -0.0016404289 -0.0009281865 0.0018297981 0.0002538709 -0.0029484155 0.001103553 0.0031905794 0.0006870205 0.0015792914 0.0008482113 0.0030972515 0.0036600905 0.00078212906 -0.00047336257 0.001992677 -0.0035286336 0.0027233686 -0.001569346 0.0036614984 -0.0043226057 -0.00092852936 0.0036129062 -0.0012232836 -0.00061901123 0.0021570015 0.0038065186 -8.511048e-05 -0.0023442747 0.0034834675 -0.0034630815 0.0001884115 0.0022539557 -0.00271148 -0.0024201882 -0.0035595242 0.0002648392 0.0020072765 -0.0033414455 -0.001119272 0.0034103738 -0.0021451889 0.0014474716 0.001140501 -0.0014910821 -0.002115606 0.0035283437 -0.0010951965 0.0037429924 -0.001026554 0.0012761216 0.0020686847 0.0001915497 0.0013344962 -0.0023951605 0.003055202 -0.0004699958 -0.0014642646 0.0024876143 0.0039348984 -0.002345806 0.00016503096 0.002043717 -0.0006793377 -0.00070298224 0.0033779738 0.0027289786 -0.0026388462 -0.00095619814 0.00399289 -0.00036106308 -0.004146627 -0.00050394767 -0.002413909 -0.00035427115 0.0005821637 -0.0013653941 -0.001894243 0.0029066037 0.0018011725 0.0012609158 0.0008619319 0.0033948745 -0.002077257 0.0024506901 -0.00037596433 -0.0030328836 -0.0032952991 -0.00039378888 0.0033341027 0.00073256344 -0.0036860784 0.0005641215 -0.0013605676 -0.0021660007 0.0031519642 0.0018483781 0.00021832455 0.0014878147 0.00027173775 -0.0039996826 0.0013698885 0.0030115028 0.0016115624 0.0014070763 -0.0013030245 0.0002831728 -0.0031781397 0.0011842237 0.00082006265 0.00029994873 -0.00033664083 0.001531635 0.00065947813 0.0007269218 0.003208709 0.0015058925 7.070792e-05 -0.0014329791 -0.0025761095 -0.004110761 -0.0013125791 0.0018263152 0.0026116427 0.00010642699 -0.001861401 0.00077776244 -0.002095623 -0.0006833772 0.0035709138 0.003251635 0.000100265046 -0.0017891842 0.0019379646 0.004041242 0.0033720785 -0.0002782044 0.0032098768 0.0031462295 -0.0036136757 0.0035270627 0.00013861086 -0.0018687976 0.0012684783 0.0038143708 -0.0031295745 0.0025637525 -0.0024210103 -0.0032764876 0.0023583905 -0.0021776936 0.0020071203 0.003037033 0.0035551537 0.0019713754 -0.0029305005 0.0015272438 -0.003646212 5.3747557e-05 0.0037627344 -0.0024014846 0.0017394638 -0.0024784107 -0.0029097686 0.002987247 0.0013943036 0.0031526703 0.0012182764 0.00021729388 0.0011241122 -0.0038884222 0.0030335803 -0.0022258519 0.0015374764 -0.0028585687 0.00038516117
722 0.0012824913 -0.001178089 -0.002857533 -0.0019238218 -0.003425389 0.0037993428 -0.0013555657 -0.00073636835 -0.00377728 -0.0015563117 -0.0017577062 0.0012098985 0.0021868488 0.0007818918 0.003845586 0.0010469982 0.0041274657 0.0032131195 0.0006866859 0.001475563 -0.0027565395 -0.0008904288 0.0020677212 -0.0035292772 0.0004227936 -0.0027797692 0.0038000604 4.015284e-05 0.00010500684 -0.001996948 0.0025503659 -0.0026910964 -0.0031237863 0.0025829594 -0.0014667002 7.317503e-05 0.0025300346 0.0012406192 0.0027276815 0.0024870643 0.0017514501 -0.0030858973 0.0017246357 0.00326531 -0.00087600044 0.00035942637 -0.0011701112 -0.0014646148 0.0035939065 4.5456756e-05 0.0014761545 -0.0019999403 0.002060932 -0.0011000059 -0.0022825827 0.00075788377 0.0041313455 -0.0028295147 0.0014521298 -6.446033e-05 -0.0028265854 -0.0014926343 -0.003481775 0.0024090037 -0.0007204562 -0.0021166473 0.0006342925 0.0022189072 0.0036199132 -0.0039905994 0.000116045834 -0.0005301858 -0.0012925455 -0.000673425 0.0032030672 -0.0008472259 0.00362688 4.7921127e-05 -0.00027840625 0.0033251587 0.0025494331 -3.7877315e-05 0.00023338314 0.0030323167 -0.0016480732 0.002153372 0.0001934818 -0.0028726673 0.002356788 -0.0016414901 0.00097097515 -0.0028005852 0.0011710003 0.0017500017 0.0023358627 -0.0027531013 -0.0027901696 0.0024420691 0.0011934622 0.00021030054 -0.0029604747 -0.00044499038 -0.0036023238 0.0008226704 -0.0017107815 0.0004132968 0.0018836643 0.0009259023 -0.0024684023 -6.358388e-05 -0.0024353026 -0.0018009905 0.0007974369 0.0033730722 -0.0027743469 0.0009347271 0.0033059905 0.00393024 0.0023495401 -0.002801376 0.0014384127 0.0030343516 0.0017910191 0.00074751035 -0.00069271174 0.0013998064 0.0018942192 0.0033390664 -0.0012832675 -0.003501109 0.0025864784 -0.0024996768 -0.00016277021 0.00034164998 -0.00054268097 -0.0018296764 0.0005041631 -0.003556358 0.0008889607 -0.001614098 -0.002495364 0.0013662764 0.0009728238 0.0018024491 -0.0004941234 -0.0037991605 0.0037039204 -0.001481887 -0.0006441955 0.0031350479 -0.00015377683 0.00093250244 0.00064849557 0.0011232411 0.0020321254 0.0039298865 1.9782294e-06 -0.0013787947 0.0013458427 -0.003319964 0.0035627761 0.0010783483 0.0024699187 0.0010049968 -0.0004473502 0.00039017366 -0.0018935568 0.0040404657 0.0021702342 0.0015679061 -0.0020314138 -0.0035398584 0.0031184396 0.0011635008 -0.0021508676 -0.0034171736 -0.0019235008 0.0005238395 -0.0030919854 -3.4527588e-05 0.0011004927 -0.0037043127 0.00010941896 -0.0023210803 -0.0010508889 -0.0005657135 -0.0045181615 -0.0015688583 -0.0032215072 -0.0030541322 0.0010438929 0.0008353934 0.0041440777 0.0033053593 -0.002323273 -0.003936316 0.0031678528 0.0017475858 0.0024971112 -0.0013135853 -0.0023742255 -0.0018000097 -0.0032057182 0.0020783893 -0.0015152002 0.0034491906 -0.0027666155 0.0032976673 -0.0020609866 0.003440885 -0.002199009 -0.0027544985 0.0034236577 -0.003424713 -0.0032007145 0.0019012731 -0.0034660646 0.0024268685 0.0010458119 -0.002631826 0.0013463842 0.0006586618 0.0036023199 0.0009910947 -0.0017839288 -0.0011676447 0.0026538079 -0.002560034 0.0035509423 -0.001128062 -0.0021167467 -0.0016367998 0.001359934 -0.0040390636 0.0011445448 -0.0012419701 0.0040478148 -0.002103496 -0.0029328212 0.0013323192 0.0032286907 0.001226643 -0.0010141247 0.0015723432 -0.0037237299 -0.001576124 -0.0014772895 0.00079598115 -0.0026575467 -0.0033308996 -0.0030968464 0.0024596155 0.0006359761 0.0031436286 0.00030829143 0.0020878923
